{"learner":{"attributes":{"scikit_learn":"{\"_estimator_type\": \"classifier\"}"},"feature_names":[],"feature_types":[],"gradient_booster":{"model":{"cats":{"enc":[],"feature_segments":[],"sorted_idx":[]},"gbtree_model_param":{"num_parallel_tree":"1","num_trees":"100"},"iteration_indptr":[0,1,2,3,4,5,6,7,8,9,10,11,12,13,14,15,16,17,18,19,20,21,22,23,24,25,26,27,28,29,30,31,32,33,34,35,36,37,38,39,40,41,42,43,44,45,46,47,48,49,50,51,52,53,54,55,56,57,58,59,60,61,62,63,64,65,66,67,68,69,70,71,72,73,74,75,76,77,78,79,80,81,82,83,84,85,86,87,88,89,90,91,92,93,94,95,96,97,98,99,100],"tree_info":[0,0,0,0,0,0,0,0,0,0,0,0,0,0,0,0,0,0,0,0,0,0,0,0,0,0,0,0,0,0,0,0,0,0,0,0,0,0,0,0,0,0,0,0,0,0,0,0,0,0,0,0,0,0,0,0,0,0,0,0,0,0,0,0,0,0,0,0,0,0,0,0,0,0,0,0,0,0,0,0,0,0,0,0,0,0,0,0,0,0,0,0,0,0,0,0,0,0,0,0],"trees":[{"base_weights":[-0E0,-7.6521736E-1,1.0114943E0,-1.4017094E0,-1.04347825E-1,-1.2987013E-1,1.3163637E0,-5.692308E-1,-8.7603307E-1,-5.368421E-1,2.244898E-1,-8.5714287E-1,6.666667E-1,9.589041E-1,1.6691729E0,-1.2876712E0,-2.3076923E-1,-1.04E0,6.4E-1,-1.0526316E0,1.5E-1,-2.0000002E-1,9.411765E-1,2E-1,1.2E0,-0E0,1.7209302E0,-1.4782609E0,3E-1,1.7142858E-1,-8.5714287E-1,-1.3333334E0,3.3333334E-1,-4.0000004E-1,7.887324E-1,-1.5384616E-1,-3.9310345E-1,1.36E0,-1.5384616E-1,-3.3333337E-1,5.1428574E-1,1.3333334E0,-3.3333334E-1,1.776E0,-0E0,-5.454546E-2,-4.8387098E-1,-4.0000004E-1,2.4444444E-1,-3.6E-1,-0E0,-4.8000002E-1,-1.5E-1,-1.5E-1,3E-1,2.88189E-1,-1.5789475E-1,-3E-1,2.0000002E-1,4.8571432E-1,-0E0,-2.0000002E-1,1.5E-1,-6.666667E-2,3.1428576E-1,4.1632655E-1,-0E0,-3E-1,1.5E-1,1.5E-1,5.404959E-1],"categories":[],"categories_nodes":[],"categories_segments":[],"categories_sizes":[],"default_left":[0,0,0,0,0,0,0,0,0,0,0,0,0,0,0,0,0,0,0,0,0,0,0,0,0,0,0,0,0,0,0,0,0,0,0,0,0,0,0,0,0,0,0,0,0,0,0,0,0,0,0,0,0,0,0,0,0,0,0,0,0,0,0,0,0,0,0,0,0,0,0],"id":0,"left_children":[1,3,5,7,9,11,13,-1,15,-1,17,19,21,23,25,27,29,31,33,35,-1,-1,37,39,41,-1,43,45,-1,47,49,51,53,-1,55,57,-1,59,61,-1,63,65,67,69,-1,-1,-1,-1,-1,-1,-1,-1,-1,-1,-1,-1,-1,-1,-1,-1,-1,-1,-1,-1,-1,-1,-1,-1,-1,-1,-1],"loss_changes":[1.5635063E2,4.822712E1,3.0444092E1,1.3582397E1,3.2264355E1,1.1722943E1,7.069832E0,0E0,7.737707E0,0E0,2.6410614E1,3.3120298E0,4.196078E0,6.4383545E0,2.872528E0,9.435377E0,3.4219782E0,5.4799995E0,1.2057841E1,1.9988832E0,0E0,0E0,4.107512E0,4.6920633E0,6.0666656E0,0E0,3.0563736E0,2.7178383E0,0E0,9.5576725E0,1.5428572E0,1.5333347E0,2.1666667E0,0E0,8.530497E0,2.9230769E0,0E0,2.2019043E0,1.4230769E0,0E0,3.6698413E0,1.8503418E0,2.1666667E0,1.2208557E-1,0E0,0E0,0E0,0E0,0E0,0E0,0E0,0E0,0E0,0E0,0E0,0E0,0E0,0E0,0E0,0E0,0E0,0E0,0E0,0E0,0E0,0E0,0E0,0E0,0E0,0E0,0E0],"parents":[2147483647,0,0,1,1,2,2,3,3,4,4,5,5,6,6,8,8,10,10,11,11,12,12,13,13,14,14,15,15,16,16,17,17,18,18,19,19,22,22,23,23,24,24,26,26,27,27,29,29,30,30,31,31,32,32,34,34,35,35,37,37,38,38,40,40,41,41,42,42,43,43],"right_children":[2,4,6,8,10,12,14,-1,16,-1,18,20,22,24,26,28,30,32,34,36,-1,-1,38,40,42,-1,44,46,-1,48,50,52,54,-1,56,58,-1,60,62,-1,64,66,68,70,-1,-1,-1,-1,-1,-1,-1,-1,-1,-1,-1,-1,-1,-1,-1,-1,-1,-1,-1,-1,-1,-1,-1,-1,-1,-1,-1],"split_conditions":[1.8085338E-1,-4.4138423E-1,-3.718993E-1,-1.8551676E-1,-8.230907E-1,7.827383E-1,1.1235744E0,-5.692308E-1,8.191679E-2,-5.368421E-1,-7.431748E-1,-5.174449E-1,-5.2421874E-1,-5.0398624E-1,-5.7539344E-1,1.8695028E0,-3.0810156E-1,8.188257E-1,-4.088764E-1,-2.0101869E-1,1.5E-1,-2.0000002E-1,-5.7566315E-1,2.6598898E-1,1.7044274E0,-0E0,2.7906256E0,-2.2589888E-2,3E-1,-1.1064415E0,-6.135062E-1,-8.763181E-1,3.6824685E-1,-4.0000004E-1,1.1295002E0,-6.952451E-1,-3.9310345E-1,1.7298286E0,-1.7066707E-1,-3.3333337E-1,2.1177438E-1,2.0365303E0,3.6824685E-1,-1.197398E0,-0E0,-5.454546E-2,-4.8387098E-1,-4.0000004E-1,2.4444444E-1,-3.6E-1,-0E0,-4.8000002E-1,-1.5E-1,-1.5E-1,3E-1,2.88189E-1,-1.5789475E-1,-3E-1,2.0000002E-1,4.8571432E-1,-0E0,-2.0000002E-1,1.5E-1,-6.666667E-2,3.1428576E-1,4.1632655E-1,-0E0,-3E-1,1.5E-1,1.5E-1,5.404959E-1],"split_indices":[1,7,5,5,5,1,1,0,6,0,1,5,7,6,4,5,2,6,4,4,0,0,5,1,4,0,6,5,0,1,7,1,0,0,2,3,0,7,4,0,5,3,0,3,0,0,0,0,0,0,0,0,0,0,0,0,0,0,0,0,0,0,0,0,0,0,0,0,0,0,0],"split_type":[0,0,0,0,0,0,0,0,0,0,0,0,0,0,0,0,0,0,0,0,0,0,0,0,0,0,0,0,0,0,0,0,0,0,0,0,0,0,0,0,0,0,0,0,0,0,0,0,0,0,0,0,0,0,0,0,0,0,0,0,0,0,0,0,0,0,0,0,0,0,0],"sum_hessian":[2E2,1.14E2,8.6E1,5.75E1,5.65E1,1.825E1,6.775E1,2.825E1,2.925E1,8.5E0,4.8E1,9.5E0,8.75E0,3.55E1,3.225E1,1.725E1,1.2E1,1.15E1,3.65E1,8.5E0,1E0,1.25E0,7.5E0,9E0,2.65E1,1E0,3.125E1,1.625E1,1E0,7.75E0,4.25E0,9.5E0,2E0,2E0,3.45E1,2.25E0,6.25E0,5.25E0,2.25E0,1.25E0,7.75E0,2.45E1,2E0,3.025E1,1E0,1.75E0,1.45E1,2E0,5.75E0,2.75E0,1.5E0,6.5E0,3E0,1E0,1E0,3.075E1,3.75E0,1E0,1.25E0,4.25E0,1E0,1.25E0,1E0,3.5E0,4.25E0,2.35E1,1E0,1E0,1E0,1E0,2.925E1],"tree_param":{"num_deleted":"0","num_feature":"8","num_nodes":"71","size_leaf_vector":"1"}},{"base_weights":[-1.0417406E-2,-5.898136E-1,7.5538903E-1,-1.0464921E0,-6.7572966E-2,-8.07874E-2,9.94285E-1,-1.126046E0,2.0507897E-1,-4.2062947E-1,1.9310486E-1,-5.9072506E-1,6.0960174E-1,7.2815514E-1,1.3147873E0,-1.398283E0,-8.1823474E-1,-4.6498618E-1,6.632529E-1,-1.4786722E-1,-1.0829947E0,7.860726E-1,-7.976185E-2,-3.606531E-1,8.3964235E-1,-0E0,1.3631815E0,-4.4136146E-1,-6.9043785E-3,-1.1564691E0,-2.2815749E-1,-7.545012E-1,3.634853E-1,8.282597E-1,-3.358683E-1,-3.0074233E-1,5.6144136E-1,-3.7750784E-1,-1.3444662E-1,1.0138111E0,-6.008846E-2,-1.8610282E-1,4.6355464E-2,-1.42736E-1,9.12383E-1,1.4152744E0,-0E0,-1.4467838E-1,-4.13851E-1,-1.741753E-1,8.778266E-2,-2.6922217E-1,6.328665E-2,-2.8000206E-1,3.9067024E-1,3.375919E-1,1.0551879E-1,-2.7587396E-1,1.4891674E-1,-1.3820511E-1,3.16225E-1,3.592131E-1,4.2857293E-2,1.3862671E-1,3.31541E-1,4.3424708E-1,1.16556264E-1],"categories":[],"categories_nodes":[],"categories_segments":[],"categories_sizes":[],"default_left":[0,0,0,0,0,0,0,0,0,0,0,0,0,0,0,0,0,0,0,0,0,0,0,0,0,0,0,0,0,0,0,0,0,0,0,0,0,0,0,0,0,0,0,0,0,0,0,0,0,0,0,0,0,0,0,0,0,0,0,0,0,0,0,0,0,0,0],"id":1,"left_children":[1,3,5,7,9,11,13,15,-1,-1,17,19,21,23,25,27,29,31,33,35,37,39,-1,41,43,-1,45,-1,-1,47,49,51,53,55,57,-1,59,-1,-1,61,-1,-1,-1,-1,63,65,-1,-1,-1,-1,-1,-1,-1,-1,-1,-1,-1,-1,-1,-1,-1,-1,-1,-1,-1,-1,-1],"loss_changes":[8.575747E1,2.6168446E1,1.6710747E1,8.838608E0,1.849779E1,7.198667E0,4.572113E0,3.5841827E0,0E0,0E0,1.4142127E1,2.3862305E0,1.559963E0,4.874222E0,1.7922935E0,2.8275642E0,5.5027447E0,4.884154E0,4.645685E0,4.9921107E0,3.4275055E-2,1.8945947E0,0E0,6.5740865E-1,3.731594E0,0E0,1.9292755E0,0E0,0E0,2.0594406E0,2.3306215E0,2.199192E0,8.096123E0,2.8634777E0,2.6262975E0,0E0,2.8189435E0,0E0,0E0,8.3340216E-1,0E0,0E0,0E0,0E0,2.3534908E0,3.032074E-1,0E0,0E0,0E0,0E0,0E0,0E0,0E0,0E0,0E0,0E0,0E0,0E0,0E0,0E0,0E0,0E0,0E0,0E0,0E0,0E0,0E0],"parents":[2147483647,0,0,1,1,2,2,3,3,4,4,5,5,6,6,7,7,10,10,11,11,12,12,13,13,14,14,15,15,16,16,17,17,18,18,19,19,20,20,21,21,23,23,24,24,26,26,29,29,30,30,31,31,32,32,33,33,34,34,36,36,39,39,44,44,45,45],"right_children":[2,4,6,8,10,12,14,16,-1,-1,18,20,22,24,26,28,30,32,34,36,38,40,-1,42,44,-1,46,-1,-1,48,50,52,54,56,58,-1,60,-1,-1,62,-1,-1,-1,-1,64,66,-1,-1,-1,-1,-1,-1,-1,-1,-1,-1,-1,-1,-1,-1,-1,-1,-1,-1,-1,-1,-1],"split_conditions":[1.8085338E-1,-3.537922E-1,-3.647229E-1,1.8695028E0,-8.230907E-1,8.181432E-1,1.1984932E0,-1.8551676E-1,2.0507897E-1,-4.2062947E-1,-4.872176E-1,-1.3756378E-1,1.0695487E0,-4.592942E-1,-5.7539344E-1,-4.4138423E-1,8.191679E-2,4.2469463E-1,1.1067718E0,-8.442674E-1,-6.4082164E-1,1.64187E0,-7.976185E-2,-5.2210695E-1,-8.482798E-1,-0E0,2.7906256E0,-4.4136146E-1,-6.9043785E-3,-8.2713896E-1,3.4057322E-1,2.257577E0,-2.3946068E-1,-5.444884E-2,-4.0529397E-1,-3.0074233E-1,-9.5408165E-1,-3.7750784E-1,-1.3444662E-1,2.5716686E-1,-6.008846E-2,-1.8610282E-1,4.6355464E-2,-1.42736E-1,-5.416505E-1,1.9422756E0,-0E0,-1.4467838E-1,-4.13851E-1,-1.741753E-1,8.778266E-2,-2.6922217E-1,6.328665E-2,-2.8000206E-1,3.9067024E-1,3.375919E-1,1.0551879E-1,-2.7587396E-1,1.4891674E-1,-1.3820511E-1,3.16225E-1,3.592131E-1,4.2857293E-2,1.3862671E-1,3.31541E-1,4.3424708E-1,1.16556264E-1],"split_indices":[1,7,5,5,5,1,1,5,0,0,1,0,2,3,4,7,6,6,2,0,5,7,0,6,6,0,6,0,0,6,3,0,4,1,6,0,5,0,0,4,0,0,0,0,0,5,0,0,0,0,0,0,0,0,0,0,0,0,0,0,0,0,0,0,0,0,0],"split_type":[0,0,0,0,0,0,0,0,0,0,0,0,0,0,0,0,0,0,0,0,0,0,0,0,0,0,0,0,0,0,0,0,0,0,0,0,0,0,0,0,0,0,0,0,0,0,0,0,0,0,0,0,0,0,0,0,0,0,0,0,0,0,0,0,0,0,0],"sum_hessian":[1.9127158E2,1.09019264E2,8.225231E1,5.762482E1,5.1394444E1,1.842467E1,6.3827644E1,5.542536E1,2.1994617E0,7.6830163E0,4.3711426E1,1.0680304E1,7.7443647E0,3.6659367E1,2.7168278E1,2.7532326E1,2.7893034E1,1.8219545E1,2.549188E1,6.306869E0,4.373435E0,6.530183E0,1.2141819E0,3.1974497E0,3.3461918E1,1E0,2.6168278E1,2.6079725E1,1.4526002E0,1.7119953E1,1.0773081E1,1.3567554E1,4.65199E0,2.202536E1,3.4665203E0,2.6730022E0,3.6338668E0,2.6572423E0,1.7161928E0,5.282666E0,1.2475166E0,1.9901156E0,1.2073339E0,1.4630756E0,3.1998842E1,2.5168278E1,1E0,5.041703E0,1.2078251E1,6.3564854E0,4.416595E0,1.1879627E1,1.6879271E0,1.9558547E0,2.6961355E0,1.2729152E1,9.296209E0,1.9758307E0,1.4906898E0,1.2029264E0,2.4309404E0,4.0535364E0,1.2291297E0,1.061E1,2.1388844E1,2.4005302E1,1.1629753E0],"tree_param":{"num_deleted":"0","num_feature":"8","num_nodes":"67","size_leaf_vector":"1"}},{"base_weights":[-1.3297883E-2,-4.4000208E-1,6.412298E-1,-1.0303485E0,-1.5769E-1,-5.2073933E-2,8.4794945E-1,-1.1047852E0,6.369615E-2,-4.191975E-1,6.0620123E-1,-5.0892895E-1,4.8256618E-1,6.163353E-1,1.1000386E0,-1.1612095E0,4.1249223E-2,-9.158048E-1,-1.8214285E-1,-7.2578067E-1,9.3325394E-1,-7.154605E-2,-3.0441374E-1,1.4563519E-1,3.1272355E-1,7.5798887E-1,-4.104382E-1,-0E0,1.1464474E0,-1.2066778E0,1.2694815E-2,-1.1550066E0,-8.497495E-2,1.7630573E-1,-4.7257408E-1,3.8459137E-2,-3.387463E-1,3.1729394E-1,4.2547584E-1,-2.348499E-1,5.2951944E-1,2.8925553E-1,-3.186905E-1,-2.749305E-1,8.7894255E-1,-4.2244E-1,2.9697713E-1,1.1969446E0,-0E0,-3.7269586E-1,-7.975266E-2,-3.7292147E-1,-6.016269E-2,1.14313565E-1,-2.6771906E-1,-1.4532964E-1,1.393448E-1,-1.9919275E-1,2.0675199E-1,2.7442166E-1,-1.8158124E-1,-1.1788741E-1,3.1421337E-1,4.6066813E-2,-2.0057128E-1,-2.1223031E-1,1.0648033E-1,2.797013E-1,-3.751848E-2,3.6796194E-1,9.9849276E-2],"categories":[],"categories_nodes":[],"categories_segments":[],"categories_sizes":[],"default_left":[0,0,0,0,0,0,0,0,0,0,0,0,0,0,0,0,0,0,0,0,0,0,0,0,0,0,0,0,0,0,0,0,0,0,0,0,0,0,0,0,0,0,0,0,0,0,0,0,0,0,0,0,0,0,0,0,0,0,0,0,0,0,0,0,0,0,0,0,0,0,0],"id":2,"left_children":[1,3,5,7,9,11,13,15,-1,17,19,21,23,25,27,29,-1,31,33,35,37,39,-1,41,-1,43,45,-1,47,49,-1,51,53,55,57,-1,-1,59,-1,-1,61,-1,63,65,67,-1,-1,69,-1,-1,-1,-1,-1,-1,-1,-1,-1,-1,-1,-1,-1,-1,-1,-1,-1,-1,-1,-1,-1,-1,-1],"loss_changes":[4.9782032E1,1.7817488E1,1.0126978E1,3.4462013E0,1.5069078E1,4.422509E0,2.4895973E0,2.4671364E0,0E0,6.4068584E0,9.094767E0,2.0749917E0,1.4313328E0,4.7542057E0,1.261137E0,1.7800064E0,0E0,3.4382248E0,4.1481643E0,1.6506684E0,4.3151484E0,3.1001935E0,0E0,2.7404957E0,0E0,3.6393728E0,7.4745555E0,0E0,1.3722324E0,6.917763E-1,0E0,9.0537643E-1,2.242967E0,3.6913629E0,5.3141766E0,0E0,0E0,5.1366997E0,0E0,0E0,2.3230095E0,0E0,9.017824E-1,1.23521E0,1.4344883E0,0E0,0E0,1.7237473E-1,0E0,0E0,0E0,0E0,0E0,0E0,0E0,0E0,0E0,0E0,0E0,0E0,0E0,0E0,0E0,0E0,0E0,0E0,0E0,0E0,0E0,0E0,0E0],"parents":[2147483647,0,0,1,1,2,2,3,3,4,4,5,5,6,6,7,7,9,9,10,10,11,11,12,12,13,13,14,14,15,15,17,17,18,18,19,19,20,20,21,21,23,23,25,25,26,26,28,28,29,29,31,31,32,32,33,33,34,34,37,37,40,40,42,42,43,43,44,44,47,47],"right_children":[2,4,6,8,10,12,14,16,-1,18,20,22,24,26,28,30,-1,32,34,36,38,40,-1,42,-1,44,46,-1,48,50,-1,52,54,56,58,-1,-1,60,-1,-1,62,-1,64,66,68,-1,-1,70,-1,-1,-1,-1,-1,-1,-1,-1,-1,-1,-1,-1,-1,-1,-1,-1,-1,-1,-1,-1,-1,-1,-1],"split_conditions":[2.6598898E-1,-7.431748E-1,-3.647229E-1,-1.5837346E-1,6.439695E-1,8.181432E-1,1.1984932E0,1.4609966E0,6.369615E-2,-4.0219247E-1,-6.7447686E-1,-1.3756378E-1,6.439695E-1,1.5130653E0,-5.7539344E-1,2.0298934E0,4.1249223E-2,1.549149E-1,2.3939218E-1,-2.1613798E-1,-2.6841697E-1,-8.442674E-1,-3.0441374E-1,-1.1406164E0,3.1272355E-1,-2.1613798E-1,7.553134E-1,-0E0,2.7906256E0,1.2565526E0,1.2694815E-2,3.6824685E-1,2.15966E-1,-2.1613798E-1,1.8986119E0,3.8459137E-2,-3.387463E-1,6.3679464E-2,4.2547584E-1,-2.348499E-1,-9.5408165E-1,2.8925553E-1,-6.8519336E-1,-6.3083124E-1,1.9365219E0,-4.2244E-1,2.9697713E-1,1.9422756E0,-0E0,-3.7269586E-1,-7.975266E-2,-3.7292147E-1,-6.016269E-2,1.14313565E-1,-2.6771906E-1,-1.4532964E-1,1.393448E-1,-1.9919275E-1,2.0675199E-1,2.7442166E-1,-1.8158124E-1,-1.1788741E-1,3.1421337E-1,4.6066813E-2,-2.0057128E-1,-2.1223031E-1,1.0648033E-1,2.797013E-1,-3.751848E-2,3.6796194E-1,9.9849276E-2],"split_indices":[1,1,5,4,0,1,1,7,0,5,5,0,0,4,4,6,0,7,5,3,6,0,0,3,0,3,7,0,6,3,0,0,0,3,5,0,0,5,0,0,5,0,6,6,7,0,0,5,0,0,0,0,0,0,0,0,0,0,0,0,0,0,0,0,0,0,0,0,0,0,0],"split_type":[0,0,0,0,0,0,0,0,0,0,0,0,0,0,0,0,0,0,0,0,0,0,0,0,0,0,0,0,0,0,0,0,0,0,0,0,0,0,0,0,0,0,0,0,0,0,0,0,0,0,0,0,0,0,0,0,0,0,0,0,0,0,0,0,0,0,0,0,0,0,0],"sum_hessian":[1.7623492E2,1.06882866E2,6.935206E1,3.372028E1,7.316258E1,1.610078E1,5.3251278E1,3.1919254E1,1.8010261E0,5.484008E1,1.8322502E1,8.707893E0,7.3928866E0,2.9548061E1,2.3703218E1,3.0594898E1,1.3243552E0,1.679431E1,3.8045773E1,3.3716571E0,1.4950845E1,5.2818236E0,3.42607E0,5.401965E0,1.9909214E0,2.6195858E1,3.3522024E0,1E0,2.2703218E1,2.9478598E1,1.1162999E0,1.273704E1,4.057269E0,1.7204735E1,2.0841036E1,1.3005227E0,2.0711346E0,7.3149276E0,7.635917E0,2.2806027E0,3.001221E0,1.5655547E0,3.8364105E0,2.612513E0,2.3583345E1,1.954301E0,1.3979014E0,2.1703218E1,1E0,2.8093878E1,1.3847207E0,1.1384279E1,1.352761E0,2.907321E0,1.1499484E0,5.0181036E0,1.2186632E1,1.8260952E1,2.5800838E0,4.444919E0,2.8700082E0,1.1657752E0,1.8354459E0,1.8714983E0,1.9649119E0,1.4759102E0,1.1366028E0,2.2460241E1,1.1231036E0,2.0578985E1,1.1242335E0],"tree_param":{"num_deleted":"0","num_feature":"8","num_nodes":"71","size_leaf_vector":"1"}},{"base_weights":[-1.0774991E-2,-4.101627E-1,4.4914743E-1,-1.1499372E0,-2.2909908E-1,-3.7001872E-1,6.055487E-1,-1.3154723E-1,-3.6125293E-1,-4.4171438E-1,4.4728172E-1,-9.411972E-1,2.6809832E-1,6.8304867E-1,-4.2559144E-1,-8.682401E-1,-2.4544029E-1,2.5174785E-2,1.081266E0,-1.1368197E0,-4.885572E-2,-2.0520906E-1,6.417242E-1,4.619281E-1,9.629202E-1,7.410423E-2,-2.785136E-1,-1.0394174E0,-9.9731185E-2,-5.174316E-1,2.1759276E-1,5.707422E-1,-6.6025084E-1,7.143047E-2,3.5589567E-1,-3.9696118E-1,-1.3339727E-1,2.7075866E-1,-7.2744586E-2,-5.0111E-1,5.739449E-1,1.0114161E0,-1.0510895E-2,-7.225696E-2,-3.2889825E-1,1.925526E-1,-2.0813328E-1,-1.9414411E-1,1.2231652E-1,-3.1501696E-2,2.4751951E-1,2.9533288E-1,-6.032523E-2,4.8312534E-2,-2.852612E-1,-3.2361567E-1,5.0167132E-2,1.906029E-1,-1.6366714E-1,-0E0,3.1642795E-1],"categories":[],"categories_nodes":[],"categories_segments":[],"categories_sizes":[],"default_left":[0,0,0,0,0,0,0,0,0,0,0,0,0,0,0,0,0,0,0,0,0,0,0,0,0,0,0,0,0,0,0,0,0,0,0,0,0,0,0,0,0,0,0,0,0,0,0,0,0,0,0,0,0,0,0,0,0,0,0,0,0],"id":3,"left_children":[1,3,5,7,9,11,13,-1,-1,15,17,19,21,23,25,27,29,31,33,35,-1,-1,37,39,41,-1,-1,43,45,47,49,51,53,-1,-1,-1,-1,-1,-1,55,57,59,-1,-1,-1,-1,-1,-1,-1,-1,-1,-1,-1,-1,-1,-1,-1,-1,-1,-1,-1],"loss_changes":[2.98967E1,1.1403004E1,9.917221E0,1.2324333E-1,1.0439758E1,4.8994446E0,5.3977737E0,0E0,0E0,4.365368E0,4.6640425E0,8.730221E-1,2.8581443E0,3.257431E0,1.9484837E0,2.1118612E0,5.005273E0,4.6949635E0,3.3605003E-1,1.0653591E-1,0E0,0E0,1.4640868E0,4.1001577E0,1.2686939E0,0E0,0E0,3.5707474E-1,2.2840874E0,3.2363257E0,3.0418205E0,2.422258E0,1.4853203E0,0E0,0E0,0E0,0E0,0E0,0E0,1.8080528E0,2.5547657E0,1.0668011E0,0E0,0E0,0E0,0E0,0E0,0E0,0E0,0E0,0E0,0E0,0E0,0E0,0E0,0E0,0E0,0E0,0E0,0E0,0E0],"parents":[2147483647,0,0,1,1,2,2,3,3,4,4,5,5,6,6,9,9,10,10,11,11,12,12,13,13,14,14,15,15,16,16,17,17,18,18,19,19,22,22,23,23,24,24,27,27,28,28,29,29,30,30,31,31,32,32,39,39,40,40,41,41],"right_children":[2,4,6,8,10,12,14,-1,-1,16,18,20,22,24,26,28,30,32,34,36,-1,-1,38,40,42,-1,-1,44,46,48,50,52,54,-1,-1,-1,-1,-1,-1,56,58,60,-1,-1,-1,-1,-1,-1,-1,-1,-1,-1,-1,-1,-1,-1,-1,-1,-1,-1,-1],"split_conditions":[7.982581E-2,-8.230907E-1,-7.700735E-1,-1.0619167E0,6.439695E-1,1.0191477E-2,2.2768729E0,-1.3154723E-1,-3.6125293E-1,-2.678229E-1,3.8851255E-1,-5.416505E-1,2.6598898E-1,1.0933305E0,4.7554065E-2,7.705038E-1,-2.1882269E-1,6.602056E-1,-8.763181E-1,1.6345999E-1,-4.885572E-2,-2.0520906E-1,1.4678367E0,-8.482798E-1,4.358607E0,7.410423E-2,-2.785136E-1,-1.1661717E0,1.3162636E0,1.2565526E0,1.1717835E-1,-7.9919964E-2,-4.767177E-1,7.143047E-2,3.5589567E-1,-3.9696118E-1,-1.3339727E-1,2.7075866E-1,-7.2744586E-2,3.6824685E-1,1.0304186E0,-5.7539344E-1,-1.0510895E-2,-7.225696E-2,-3.2889825E-1,1.925526E-1,-2.0813328E-1,-1.9414411E-1,1.2231652E-1,-3.1501696E-2,2.4751951E-1,2.9533288E-1,-6.032523E-2,4.8312534E-2,-2.852612E-1,-3.2361567E-1,5.0167132E-2,1.906029E-1,-1.6366714E-1,-0E0,3.1642795E-1],"split_indices":[1,5,7,4,0,5,7,0,0,4,6,0,1,1,0,6,1,7,1,6,0,0,3,6,4,0,0,4,6,3,7,5,2,0,0,0,0,0,0,0,1,4,0,0,0,0,0,0,0,0,0,0,0,0,0,0,0,0,0,0,0],"split_type":[0,0,0,0,0,0,0,0,0,0,0,0,0,0,0,0,0,0,0,0,0,0,0,0,0,0,0,0,0,0,0,0,0,0,0,0,0,0,0,0,0,0,0,0,0,0,0,0,0,0,0,0,0,0,0,0,0,0,0,0,0],"sum_hessian":[1.607557E2,8.609804E1,7.465767E1,1.5877218E1,7.022082E1,1.1750019E1,6.290765E1,1.768217E0,1.4109001E1,5.3690536E1,1.6530277E1,5.949586E0,5.8004336E0,5.8824043E1,4.0836062E0,1.5841517E1,3.7849022E1,1.0547475E1,5.982803E0,4.386548E0,1.5630376E0,1.4005519E0,4.3998814E0,3.434181E1,2.4482235E1,1.9644142E0,2.1191921E0,1.2667461E1,3.174056E0,2.376921E1,1.407981E1,5.966072E0,4.581403E0,1.0247282E0,4.958075E0,2.7376597E0,1.6488886E0,3.3816974E0,1.0181842E0,3.2163622E0,3.1125446E1,2.333479E1,1.1474457E0,1.190773E0,1.1476688E1,1.3759464E0,1.7981097E0,2.1109898E1,2.659314E0,9.736422E0,4.343388E0,3.704812E0,2.2612603E0,1.3139741E0,3.2674286E0,1.3959059E0,1.8204564E0,2.9917145E1,1.2083008E0,1E0,2.233479E1],"tree_param":{"num_deleted":"0","num_feature":"8","num_nodes":"61","size_leaf_vector":"1"}},{"base_weights":[-1.5714517E-2,-7.108607E-1,1.5570699E-1,-8.2559806E-1,1.903913E-1,9.807538E-3,8.0242485E-1,-8.730589E-1,5.1831573E-2,-6.573202E-2,1.9051315E-1,-8.970888E-1,1.2167687E-1,8.6061835E-1,-5.8842E-2,-9.3103987E-1,1.6069905E-3,-9.6061784E-1,-5.512442E-2,-4.8613238E-1,2.624545E-1,9.404939E-1,9.829832E-3,-3.5165876E-1,-5.2033025E-1,-5.9637837E-2,-1.0347576E0,-3.3169565E-1,-1.2250432E-1,1.3324365E-1,7.2854847E-1,-0E0,9.9231744E-1,1.6256063E-1,-2.1583332E-1,-9.409884E-2,-3.374891E-1,7.3549E-2,-2.3026527E-1,6.239385E-2,-2.610916E-1,2.5647867E-1,-8.206064E-2,3.1137887E-1,4.3809403E-2],"categories":[],"categories_nodes":[],"categories_segments":[],"categories_sizes":[],"default_left":[0,0,0,0,0,0,0,0,0,0,0,0,0,0,0,0,0,0,0,0,0,0,0,0,0,0,0,0,0,0,0,0,0,0,0,0,0,0,0,0,0,0,0,0,0],"id":4,"left_children":[1,3,5,7,9,11,13,15,-1,-1,-1,17,19,21,-1,23,-1,25,-1,27,29,31,-1,-1,33,-1,35,-1,37,39,41,-1,43,-1,-1,-1,-1,-1,-1,-1,-1,-1,-1,-1,-1],"loss_changes":[1.7805065E1,3.2132092E0,1.1308749E1,1.4019127E0,8.9481086E-1,1.0140011E1,1.4509726E0,1.297123E0,0E0,0E0,0E0,3.2091236E-1,7.7339516E0,1.3601294E0,0E0,1.7478371E0,0E0,3.5020065E-1,0E0,3.7095318E0,4.288875E0,9.332695E-1,0E0,0E0,2.6327477E0,0E0,2.1510315E-1,0E0,3.0056183E0,4.5493355E0,2.2073717E0,0E0,5.4895973E-1,0E0,0E0,0E0,0E0,0E0,0E0,0E0,0E0,0E0,0E0,0E0,0E0],"parents":[2147483647,0,0,1,1,2,2,3,3,4,4,5,5,6,6,7,7,11,11,12,12,13,13,15,15,17,17,19,19,20,20,21,21,24,24,26,26,28,28,29,29,30,30,32,32],"right_children":[2,4,6,8,10,12,14,16,-1,-1,-1,18,20,22,-1,24,-1,26,-1,28,30,32,-1,-1,34,-1,36,-1,38,40,42,-1,44,-1,-1,-1,-1,-1,-1,-1,-1,-1,-1,-1,-1],"split_conditions":[-7.076501E-1,7.553134E-1,1.1984932E0,2.0298934E0,1.5383594E-1,-8.991631E-1,1.741276E0,1.40083E0,5.1831573E-2,-6.573202E-2,1.9051315E-1,8.005881E-1,-7.700735E-1,2.0877073E0,-5.8842E-2,-9.420677E-1,1.6069905E-3,-8.997423E-1,-5.512442E-2,-9.0675324E-2,8.037251E-1,-5.7539344E-1,9.829832E-3,-3.5165876E-1,-8.6036026E-1,-5.9637837E-2,-1.0680944E0,-3.3169565E-1,-7.862862E-1,2.191785E0,2.7906256E0,-0E0,1.346053E0,1.6256063E-1,-2.1583332E-1,-9.409884E-2,-3.374891E-1,7.3549E-2,-2.3026527E-1,6.239385E-2,-2.610916E-1,2.5647867E-1,-8.206064E-2,3.1137887E-1,4.3809403E-2],"split_indices":[1,7,1,6,2,5,2,3,0,0,0,2,7,7,0,1,0,4,0,3,6,4,0,0,6,0,2,0,7,7,6,0,0,0,0,0,0,0,0,0,0,0,0,0,0],"split_type":[0,0,0,0,0,0,0,0,0,0,0,0,0,0,0,0,0,0,0,0,0,0,0,0,0,0,0,0,0,0,0,0,0,0,0,0,0,0,0,0,0,0,0,0,0],"sum_hessian":[1.4748886E2,2.855325E1,1.18935616E2,2.5403147E1,3.1501029E0,9.7871086E1,2.1064535E1,2.4370148E1,1.0329998E0,1.9039347E0,1.246168E0,9.97634E0,8.7894745E1,2.0035091E1,1.0294428E0,2.2804968E1,1.5651802E0,8.842219E0,1.1341212E0,1.6067953E1,7.182679E1,1.8148012E1,1.8870802E0,1.3200166E1,9.604801E0,1.1106834E0,7.7315354E0,5.1881666E0,1.0879787E1,5.7243565E1,1.4583223E1,1E0,1.7148012E1,1.2444944E0,8.360307E0,1.3574501E0,6.3740854E0,7.324724E0,3.5550628E0,5.401383E1,3.2297378E0,1.3080404E1,1.5028195E0,1.6056183E1,1.0918283E0],"tree_param":{"num_deleted":"0","num_feature":"8","num_nodes":"45","size_leaf_vector":"1"}},{"base_weights":[-2.1298235E-2,-2.5306922E-1,3.488034E-1,-9.894876E-1,-1.2897092E-1,-9.862188E-2,4.9945E-1,-6.892066E-2,-3.175078E-1,-2.8554353E-1,3.9477935E-1,-7.3479986E-1,7.937552E-2,3.7468937E-1,8.438382E-1,-4.1858825E-1,1.4387655E-1,6.855252E-2,9.3160003E-1,-6.708519E-2,-2.6801062E-1,2.4435948E-1,-2.1155803E-1,5.232018E-1,-8.3791167E-1,9.997648E-1,-4.820517E-2,-8.917841E-1,-2.1212687E-1,3.95216E-1,-7.010906E-1,3.8399255E-1,-6.788838E-1,4.3324467E-2,3.1753933E-1,-1.5533443E-1,6.338889E-1,2.0424362E-1,7.814558E-1,2.0738167E-1,-5.5992764E-1,1.2275172E-1,3.368809E-1,-3.2275495E-1,1.194097E-1,-1.4506432E-1,3.8811956E-2,-7.922095E-2,2.2077958E-1,-2.792605E-1,-2.9826483E-2,2.0623617E-1,-2.2834245E-2,-3.179465E-1,2.6812283E-2,-2.0538822E-1,1.3621297E-1,2.3481089E-1,-4.9282624E-3,-6.687716E-2,1.9175991E-1,2.79507E-1,-1.4026061E-2],"categories":[],"categories_nodes":[],"categories_segments":[],"categories_sizes":[],"default_left":[0,0,0,0,0,0,0,0,0,0,0,0,0,0,0,0,0,0,0,0,0,0,0,0,0,0,0,0,0,0,0,0,0,0,0,0,0,0,0,0,0,0,0,0,0,0,0,0,0,0,0,0,0,0,0,0,0,0,0,0,0,0,0],"id":5,"left_children":[1,3,5,7,9,11,13,-1,-1,15,17,19,21,23,25,27,29,31,33,-1,-1,35,-1,37,39,41,-1,43,45,47,49,51,53,-1,-1,55,57,59,61,-1,-1,-1,-1,-1,-1,-1,-1,-1,-1,-1,-1,-1,-1,-1,-1,-1,-1,-1,-1,-1,-1,-1,-1],"loss_changes":[1.1912811E1,7.6719465E0,3.655583E0,3.9303303E-1,6.196447E0,1.6789917E0,1.4107084E0,0E0,0E0,3.3563871E0,2.9996915E0,6.1754107E-2,1.7366967E0,6.07551E0,1.7096615E0,4.1390557E0,3.3333511E0,3.080628E0,4.9956608E-1,0E0,0E0,1.7687963E0,0E0,2.1882043E0,7.266506E0,1.7333984E-1,0E0,3.5491943E0,3.0431857E0,2.8295128E0,4.1341662E-1,1.31587E0,1.2392814E0,0E0,0E0,2.27779E0,5.577183E-1,2.7634315E0,1.9592333E0,0E0,0E0,0E0,0E0,0E0,0E0,0E0,0E0,0E0,0E0,0E0,0E0,0E0,0E0,0E0,0E0,0E0,0E0,0E0,0E0,0E0,0E0,0E0,0E0],"parents":[2147483647,0,0,1,1,2,2,3,3,4,4,5,5,6,6,9,9,10,10,11,11,12,12,13,13,14,14,15,15,16,16,17,17,18,18,21,21,23,23,24,24,25,25,27,27,28,28,29,29,30,30,31,31,32,32,35,35,36,36,37,37,38,38],"right_children":[2,4,6,8,10,12,14,-1,-1,16,18,20,22,24,26,28,30,32,34,-1,-1,36,-1,38,40,42,-1,44,46,48,50,52,54,-1,-1,56,58,60,62,-1,-1,-1,-1,-1,-1,-1,-1,-1,-1,-1,-1,-1,-1,-1,-1,-1,-1,-1,-1,-1,-1,-1,-1],"split_conditions":[2.6598898E-1,-8.991631E-1,-3.647229E-1,-1.0619167E0,6.439695E-1,-8.5920435E-1,1.3892024E0,-6.892066E-2,-3.175078E-1,1.1717835E-1,1.2721857E-1,6.687961E-1,1.2662328E0,1.0981112E0,1.023527E0,-1.6359061E-1,7.4880177E-1,3.2663313E-1,-8.763181E-1,-6.708519E-2,-2.6801062E-1,8.181432E-1,-2.1155803E-1,-9.929033E-2,4.8278508E-1,-7.700735E-1,-4.820517E-2,1.9000282E0,1.1513809E-1,-5.437898E-1,1.0253384E0,6.602056E-1,8.6523825E-1,4.3324467E-2,3.1753933E-1,-7.357633E-1,2.5716686E-1,3.2823887E-1,2.1468203E0,2.0738167E-1,-5.5992764E-1,1.2275172E-1,3.368809E-1,-3.2275495E-1,1.194097E-1,-1.4506432E-1,3.8811956E-2,-7.922095E-2,2.2077958E-1,-2.792605E-1,-2.9826483E-2,2.0623617E-1,-2.2834245E-2,-3.179465E-1,2.6812283E-2,-2.0538822E-1,1.3621297E-1,2.3481089E-1,-4.9282624E-3,-6.687716E-2,1.9175991E-1,2.79507E-1,-1.4026061E-2],"split_indices":[1,5,5,4,0,2,5,0,0,7,6,1,2,5,7,5,5,5,1,0,0,1,0,6,2,7,0,6,6,1,5,7,5,0,0,5,4,7,4,0,0,0,0,0,0,0,0,0,0,0,0,0,0,0,0,0,0,0,0,0,0,0,0],"split_type":[0,0,0,0,0,0,0,0,0,0,0,0,0,0,0,0,0,0,0,0,0,0,0,0,0,0,0,0,0,0,0,0,0,0,0,0,0,0,0,0,0,0,0,0,0,0,0,0,0,0,0,0,0,0,0,0,0,0,0,0,0,0,0],"sum_hessian":[1.3684918E2,8.434532E1,5.250386E1,1.1158088E1,7.318723E1,1.3312035E1,3.9191826E1,1.2877773E0,9.870311E0,5.6693726E1,1.6493505E1,2.2264307E0,1.1085604E1,3.0302282E1,8.8895445E0,4.3302723E1,1.33910055E1,1.0960495E1,5.5330105E0,1.0977637E0,1.128667E0,9.728399E0,1.3572046E0,2.7502466E1,2.7998157E0,7.699178E0,1.190366E0,1.2145854E1,3.1156868E1,1.0731223E1,2.659782E0,8.049587E0,2.9109077E0,1.0647359E0,4.4682746E0,5.0982943E0,4.630105E0,1.3106305E1,1.4396161E1,1.2577288E0,1.5420866E0,2.0744436E0,5.624735E0,1.0774191E1,1.3716626E0,1.7127861E1,1.4029007E1,3.7329388E0,6.998285E0,1.5287921E0,1.1309898E0,4.5527334E0,3.4968536E0,1.6922833E0,1.2186246E0,2.6623478E0,2.4359467E0,3.6022239E0,1.0278809E0,6.8582973E0,6.2480083E0,1.2079955E1,2.316206E0],"tree_param":{"num_deleted":"0","num_feature":"8","num_nodes":"63","size_leaf_vector":"1"}},{"base_weights":[-1.9400144E-2,-1.2148819E-1,6.285309E-1,-8.5248524E-1,-2.5253018E-2,8.601737E-1,3.186892E-1,-9.465801E-1,-6.1360206E-2,-6.483989E-1,6.1740465E-2,9.24534E-1,5.723561E-2,-1.9038269E-1,7.397631E-1,-5.9120588E-2,-3.062318E-1,1.4172739E-1,-8.016608E-1,-6.4851224E-1,1.2083088E-1,5.97064E-2,3.0011654E-1,1.9314314E-1,-5.963362E-1,2.6260832E-1,3.1140774E-2,-9.600607E-1,6.29884E-2,3.7839904E-2,-8.4222907E-1,-1.1437546E-2,4.7955707E-1,-3.62625E-1,5.181494E-2,-3.25586E-1,-8.361369E-2,-2.8349963E-1,-6.1377443E-2,2.5458783E-2,-2.0651855E-1,1.6168714E-1,-9.956644E-2],"categories":[],"categories_nodes":[],"categories_segments":[],"categories_sizes":[],"default_left":[0,0,0,0,0,0,0,0,0,0,0,0,0,0,0,0,0,0,0,0,0,0,0,0,0,0,0,0,0,0,0,0,0,0,0,0,0,0,0,0,0,0,0],"id":6,"left_children":[1,3,5,7,9,11,13,15,-1,17,19,21,-1,23,25,-1,-1,-1,27,29,31,-1,-1,-1,33,-1,-1,35,-1,-1,37,39,41,-1,-1,-1,-1,-1,-1,-1,-1,-1,-1],"loss_changes":[8.508092E0,7.784166E0,9.827981E-1,5.9153557E-1,5.411183E0,2.2997618E-1,2.0872653E0,4.0881157E-1,0E0,2.4786568E0,3.7656226E0,2.6015186E-1,0E0,2.0452948E0,3.5534644E-1,0E0,0E0,0E0,1.9842324E0,1.1424091E0,3.8939342E0,0E0,0E0,0E0,2.007513E0,0E0,0E0,5.335226E-1,0E0,0E0,1.7716265E-1,4.025392E0,1.2440972E0,0E0,0E0,0E0,0E0,0E0,0E0,0E0,0E0,0E0,0E0],"parents":[2147483647,0,0,1,1,2,2,3,3,4,4,5,5,6,6,7,7,9,9,10,10,11,11,13,13,14,14,18,18,19,19,20,20,24,24,27,27,30,30,31,31,32,32],"right_children":[2,4,6,8,10,12,14,16,-1,18,20,22,-1,24,26,-1,-1,-1,28,30,32,-1,-1,-1,34,-1,-1,36,-1,-1,38,40,42,-1,-1,-1,-1,-1,-1,-1,-1,-1,-1],"split_conditions":[1.1984932E0,-8.991631E-1,3.143376E-1,5.37297E-1,-9.955417E-1,2.1810355E0,6.439695E-1,-1.0619167E0,-6.1360206E-2,-2.3481903E0,-1.040692E0,-6.929037E-1,5.723561E-2,-7.1539456E-1,1.2817179E0,-5.9120588E-2,-3.062318E-1,1.4172739E-1,1.0594792E0,-3.8645387E-1,6.439695E-1,5.97064E-2,3.0011654E-1,1.9314314E-1,1.7056932E0,2.6260832E-1,3.1140774E-2,1.8085338E-1,6.29884E-2,3.7839904E-2,6.558405E-1,6.17747E-1,1.8389789E0,-3.62625E-1,5.181494E-2,-3.25586E-1,-8.361369E-2,-2.8349963E-1,-6.1377443E-2,2.5458783E-2,-2.0651855E-1,1.6168714E-1,-9.956644E-2],"split_indices":[1,5,7,1,2,1,0,4,0,2,1,2,0,6,0,0,0,0,6,5,0,0,0,0,1,0,0,1,0,0,2,4,7,0,0,0,0,0,0,0,0,0,0],"split_type":[0,0,0,0,0,0,0,0,0,0,0,0,0,0,0,0,0,0,0,0,0,0,0,0,0,0,0,0,0,0,0,0,0,0,0,0,0,0,0,0,0,0,0],"sum_hessian":[1.26471504E2,1.0995888E2,1.6512627E1,1.1877755E1,9.808112E1,8.432316E0,8.080311E0,9.96916E0,1.9085943E0,1.1224576E1,8.6856544E1,7.3449516E0,1.0873646E0,3.905946E0,4.174365E0,1.2272589E0,8.741901E0,1.0997205E0,1.0124856E1,5.904995E0,8.0951546E1,1.0382534E0,6.3066983E0,1.086787E0,2.819159E0,3.1304574E0,1.0439079E0,8.798202E0,1.3266544E0,1.2510617E0,4.653933E0,5.985143E1,2.1100119E1,1.2511227E0,1.5680362E0,6.931417E0,1.8667846E0,3.5928357E0,1.0610974E0,5.3163353E1,6.6880765E0,1.9973787E1,1.1263314E0],"tree_param":{"num_deleted":"0","num_feature":"8","num_nodes":"43","size_leaf_vector":"1"}},{"base_weights":[-1.9602828E-2,-1.1389597E-1,4.9483913E-1,-7.948508E-1,-3.5931632E-2,5.563294E-1,-8.947635E-2,-8.775495E-1,-5.2194614E-2,-6.319687E-1,3.9665397E-2,6.278864E-1,1.1601861E-2,-5.070568E-2,-2.8862557E-1,-9.163537E-1,1.3285197E-1,-1.9846644E-2,8.7604326E-1,-8.861047E-3,7.2636926E-1,1.9866328E-1,-1.9513467E-1,-3.1555662E-1,-1.8077748E-2,1.9411047E-1,-1.5797448E-1,8.004897E-2,-4.2303666E-1,1.5262533E-2,3.1647992E-1,-9.21791E-2,8.470537E-2,8.00446E-1,-2.4055382E-2,-1.78046E-1,4.5926902E-2,-2.7515927E-1,-3.0742849E-3,1.1103673E-2,2.7226517E-1],"categories":[],"categories_nodes":[],"categories_segments":[],"categories_sizes":[],"default_left":[0,0,0,0,0,0,0,0,0,0,0,0,0,0,0,0,0,0,0,0,0,0,0,0,0,0,0,0,0,0,0,0,0,0,0,0,0,0,0,0,0],"id":7,"left_children":[1,3,5,7,9,11,-1,13,-1,15,17,19,21,-1,-1,23,25,27,29,31,33,-1,-1,-1,-1,-1,-1,35,37,-1,-1,-1,-1,39,-1,-1,-1,-1,-1,-1,-1],"loss_changes":[5.915244E0,5.4336166E0,1.0874434E0,3.8757992E-1,4.231865E0,6.898737E-1,0E0,3.7873125E-1,0E0,2.4202466E0,4.188249E0,9.96603E-1,1.7640823E0,0E0,0E0,8.4490776E-1,1.6080655E0,3.2240608E0,7.712693E-1,3.5640085E-1,8.819356E-1,0E0,0E0,0E0,0E0,0E0,0E0,3.2551E0,3.2312648E0,0E0,0E0,0E0,0E0,9.988594E-1,0E0,0E0,0E0,0E0,0E0,0E0,0E0],"parents":[2147483647,0,0,1,1,2,2,3,3,4,4,5,5,7,7,9,9,10,10,11,11,12,12,15,15,16,16,17,17,18,18,19,19,20,20,27,27,28,28,33,33],"right_children":[2,4,6,8,10,12,-1,14,-1,16,18,20,22,-1,-1,24,26,28,30,32,34,-1,-1,-1,-1,-1,-1,36,38,-1,-1,-1,-1,40,-1,-1,-1,-1,-1,-1,-1],"split_conditions":[1.0933305E0,-8.991631E-1,2.5321362E0,5.37297E-1,-9.5297486E-1,1.9785513E0,-8.947635E-2,-1.0619167E0,-5.2194614E-2,3.4057322E-1,1.8986119E0,-6.135062E-1,-6.9748896E-1,-5.070568E-2,-2.8862557E-1,6.676732E-1,3.205754E-1,7.844665E-1,-6.6910946E-1,-2.5311839E-2,1.570967E0,1.9866328E-1,-1.9513467E-1,-3.1555662E-1,-1.8077748E-2,1.9411047E-1,-1.5797448E-1,-9.955417E-1,-1.6875306E-1,1.5262533E-2,3.1647992E-1,-9.21791E-2,8.470537E-2,-8.1203836E-1,-2.4055382E-2,-1.78046E-1,4.5926902E-2,-2.7515927E-1,-3.0742849E-3,1.1103673E-2,2.7226517E-1],"split_indices":[1,5,7,1,7,6,0,4,0,3,5,7,7,0,0,5,5,3,1,2,3,0,0,0,0,0,0,2,6,0,0,0,0,6,0,0,0,0,0,0,0],"split_type":[0,0,0,0,0,0,0,0,0,0,0,0,0,0,0,0,0,0,0,0,0,0,0,0,0,0,0,0,0,0,0,0,0,0,0,0,0,0,0,0,0],"sum_hessian":[1.1978093E2,1.0188485E2,1.7896082E1,9.522091E0,9.2362755E1,1.6885448E1,1.0106341E0,8.038018E0,1.4840727E0,9.5676775E0,8.2795074E1,1.4789939E1,2.09551E0,1.1765145E0,6.861504E0,6.829952E0,2.737726E0,7.82066E1,4.5884805E0,2.1029832E0,1.2686955E1,1.0567658E0,1.0387443E0,5.6992188E0,1.1307333E0,1.5488424E0,1.1888835E0,6.3319756E1,1.4886839E1,1.0463513E0,3.542129E0,1.0114453E0,1.091538E0,1.1626693E1,1.0602626E0,5.497728E0,5.782203E1,6.2194347E0,8.667404E0,1.5960109E0,1.0030682E1],"tree_param":{"num_deleted":"0","num_feature":"8","num_nodes":"41","size_leaf_vector":"1"}},{"base_weights":[-2.0622503E-2,-4.6126646E-1,6.970823E-2,-6.838567E-1,1.4018784E-1,3.432744E-3,6.9000983E-1,1.862335E-1,-8.60339E-1,-1.5288085E-1,5.2625E-1,-1.13809206E-1,3.1536028E-1,8.3140844E-1,-4.0881224E-2,1.4249629E-1,-6.427514E-2,-9.4961184E-1,3.7727917E-3,2.8541744E-1,-5.8024596E-2,9.637293E-2,-3.832681E-1,5.732981E-3,7.5141764E-1,3.1097165E-1,3.2130012E-1,-7.096085E-2,-3.0119348E-1,2.1316081E-1,-8.2913685E-1,-8.6111456E-1,-2.7881337E-2,2.2286415E-1,-7.192935E-1,8.901419E-1,-5.8773432E-2,-4.412818E-2,2.0737337E-1,-5.8954697E-2,1.46382E-1,-8.959794E-2,-3.403513E-1,-3.2021007E-1,1.202722E-1,1.5097356E-1,-7.9344556E-2,-1.0343208E-1,1.3466671E-1,-3.5213158E-1,4.5904864E-2,2.916526E-1,3.631881E-2],"categories":[],"categories_nodes":[],"categories_segments":[],"categories_sizes":[],"default_left":[0,0,0,0,0,0,0,0,0,0,0,0,0,0,0,0,0,0,0,0,0,0,0,0,0,0,0,0,0,0,0,0,0,0,0,0,0,0,0,0,0,0,0,0,0,0,0,0,0,0,0,0,0],"id":8,"left_children":[1,3,5,7,9,11,13,15,17,-1,19,21,23,25,-1,-1,-1,27,-1,-1,-1,29,31,33,35,-1,37,-1,-1,39,41,43,45,47,49,51,-1,-1,-1,-1,-1,-1,-1,-1,-1,-1,-1,-1,-1,-1,-1,-1,-1],"loss_changes":[4.593699E0,2.7235565E0,3.9431806E0,2.3861418E0,1.80636E0,3.2436864E0,1.1951127E0,4.7950587E-1,9.649496E-1,0E0,1.5113713E0,3.6891842E0,3.2667396E0,5.091338E-1,0E0,0E0,0E0,1.9314384E-1,0E0,0E0,0E0,4.1789675E0,4.8090053E0,2.5492673E0,1.495409E0,0E0,7.5275916E-1,0E0,0E0,3.88659E0,3.663745E-1,3.5787792E0,2.3139603E0,1.7509898E0,1.6598712E0,4.46867E-1,0E0,0E0,0E0,0E0,0E0,0E0,0E0,0E0,0E0,0E0,0E0,0E0,0E0,0E0,0E0,0E0,0E0],"parents":[2147483647,0,0,1,1,2,2,3,3,4,4,5,5,6,6,7,7,8,8,10,10,11,11,12,12,13,13,17,17,21,21,22,22,23,23,24,24,26,26,29,29,30,30,31,31,32,32,33,33,34,34,35,35],"right_children":[2,4,6,8,10,12,14,16,18,-1,20,22,24,26,-1,-1,-1,28,-1,-1,-1,30,32,34,36,-1,38,-1,-1,40,42,44,46,48,50,52,-1,-1,-1,-1,-1,-1,-1,-1,-1,-1,-1,-1,-1,-1,-1,-1,-1],"split_conditions":[-3.08964E-1,6.22518E-1,1.5201933E0,-1.1373066E0,-8.105686E-1,6.439695E-1,1.0856444E0,-8.186551E-1,-4.088764E-1,-1.5288085E-1,-5.7539344E-1,1.281017E-1,-3.657457E-3,-1.1941721E-1,-4.0881224E-2,1.4249629E-1,-6.427514E-2,-1.6864188E0,3.7727917E-3,2.8541744E-1,-5.8024596E-2,5.8341926E-1,-2.684702E-1,3.703832E-1,2.0889008E0,3.1097165E-1,1.40083E0,-7.096085E-2,-3.0119348E-1,-3.1683013E-2,-1.7066707E-1,1.1947925E0,-2.900092E-1,-4.489461E-1,3.9518774E-1,1.0981112E0,-5.8773432E-2,-4.412818E-2,2.0737337E-1,-5.8954697E-2,1.46382E-1,-8.959794E-2,-3.403513E-1,-3.2021007E-1,1.202722E-1,1.5097356E-1,-7.9344556E-2,-1.0343208E-1,1.3466671E-1,-3.5213158E-1,4.5904864E-2,2.916526E-1,3.631881E-2],"split_indices":[4,6,5,0,1,0,7,4,4,0,4,2,3,4,0,0,0,2,0,0,0,0,7,5,4,0,3,0,0,1,4,1,0,1,1,5,0,0,0,0,0,0,0,0,0,0,0,0,0,0,0,0,0],"split_type":[0,0,0,0,0,0,0,0,0,0,0,0,0,0,0,0,0,0,0,0,0,0,0,0,0,0,0,0,0,0,0,0,0,0,0,0,0,0,0,0,0,0,0,0,0,0,0,0,0,0,0,0,0],"sum_hessian":[1.1360106E2,1.86275E1,9.497356E1,1.3495857E1,5.131643E0,8.67142E1,8.259356E0,2.2664735E0,1.1229384E1,1.7932979E0,3.338345E0,6.3486958E1,2.3227243E1,7.0471883E0,1.2121675E0,1.2088459E0,1.0576277E0,1.0107799E1,1.1215857E0,1.8961849E0,1.4421601E0,3.6027386E1,2.7459574E1,1.4175161E1,9.052081E0,4.2897882E0,2.7573998E0,1.0951008E0,9.012697E0,3.267401E1,3.3533735E0,1.1104983E1,1.6354591E1,1.1441322E1,2.733839E0,7.948492E0,1.1035888E0,1.4826174E0,1.2747824E0,1.3231539E1,1.9442472E1,1.9477769E0,1.4055965E0,9.677612E0,1.4273713E0,4.6928916E0,1.1661699E1,3.1087196E0,8.3326025E0,1.5701771E0,1.163662E0,6.9437637E0,1.0047287E0],"tree_param":{"num_deleted":"0","num_feature":"8","num_nodes":"53","size_leaf_vector":"1"}},{"base_weights":[-1.7864974E-2,-3.9397484E-1,7.6737724E-2,-7.622179E-1,-1.4901112E-1,-3.847444E-1,1.7185317E-1,-2.8105026E-1,2.8706035E-3,8.622409E-2,-2.2405834E-1,-6.2028235E-1,3.8369128E-1,-2.0247631E-1,1.9713137E-1,-4.6013552E-1,5.346875E-1,-8.458354E-1,8.238123E-2,2.2031213E-1,-6.2322367E-2,1.4326811E-1,6.06185E-1,-7.002845E-1,1.1230594E-2,6.584964E-1,-1.1824959E-2,-3.2308474E-1,-3.7856552E-1,2.4480528E-1,-1.5552631E-1,2.3705544E-1,-2.9832616E-1,7.4551547E-1,-4.837028E-2,-2.4565111E-1,-5.9681956E-2,6.334595E-2,2.8996664E-1,-2.0055956E-1,1.7474005E-2,-6.6429995E-2,9.617115E-2,6.88187E-2,-2.9250765E-1,1.01756E-1,2.9383898E-1],"categories":[],"categories_nodes":[],"categories_segments":[],"categories_sizes":[],"default_left":[0,0,0,0,0,0,0,0,0,0,0,0,0,0,0,0,0,0,0,0,0,0,0,0,0,0,0,0,0,0,0,0,0,0,0,0,0,0,0,0,0,0,0,0,0,0,0],"id":9,"left_children":[1,3,5,7,9,11,13,-1,-1,15,-1,17,19,-1,21,23,25,27,29,-1,-1,31,33,35,-1,37,-1,-1,39,-1,-1,41,43,45,-1,-1,-1,-1,-1,-1,-1,-1,-1,-1,-1,-1,-1],"loss_changes":[3.89102E0,1.8682952E0,3.9084523E0,1.1590304E0,2.0947123E0,3.001373E0,1.701361E0,0E0,0E0,3.0041914E0,0E0,1.9823008E0,1.0235984E0,0E0,1.4977398E0,6.967993E-1,4.982618E-1,5.884509E-1,2.117233E0,0E0,0E0,2.7569666E0,9.8188114E-1,6.508839E-2,0E0,5.569525E-1,0E0,0E0,6.2089556E-1,0E0,0E0,2.140801E0,4.4392986E0,3.3303E-1,0E0,0E0,0E0,0E0,0E0,0E0,0E0,0E0,0E0,0E0,0E0,0E0,0E0],"parents":[2147483647,0,0,1,1,2,2,3,3,4,4,5,5,6,6,9,9,11,11,12,12,14,14,15,15,16,16,17,17,18,18,21,21,22,22,23,23,25,25,28,28,31,31,32,32,33,33],"right_children":[2,4,6,8,10,12,14,-1,-1,16,-1,18,20,-1,22,24,26,28,30,-1,-1,32,34,36,-1,38,-1,-1,40,-1,-1,42,44,46,-1,-1,-1,-1,-1,-1,-1,-1,-1,-1,-1,-1,-1],"split_conditions":[-5.174449E-1,-5.2421874E-1,-2.3720396E-1,-5.416505E-1,1.8913037E0,6.558405E-1,-1.2379405E0,-2.8105026E-1,2.8706035E-3,2.5801793E-2,-2.2405834E-1,8.188257E-1,9.18706E-1,-2.0247631E-1,1.5201933E0,6.439695E-1,9.399726E-2,2.3352268E-1,1.2174814E0,2.2031213E-1,-6.2322367E-2,9.089019E-1,9.768475E-1,1.549149E-1,1.1230594E-2,-6.7915314E-1,-1.1824959E-2,-3.2308474E-1,-7.512938E-2,2.4480528E-1,-1.5552631E-1,-7.700735E-1,7.952245E-1,1.1513809E-1,-4.837028E-2,-2.4565111E-1,-5.9681956E-2,6.334595E-2,2.8996664E-1,-2.0055956E-1,1.7474005E-2,-6.6429995E-2,9.617115E-2,6.88187E-2,-2.9250765E-1,1.01756E-1,2.9383898E-1],"split_indices":[5,7,4,0,7,2,1,0,0,1,0,6,3,0,5,0,6,3,6,0,0,5,4,7,0,6,0,0,6,0,0,7,2,6,0,0,0,0,0,0,0,0,0,0,0,0,0],"split_type":[0,0,0,0,0,0,0,0,0,0,0,0,0,0,0,0,0,0,0,0,0,0,0,0,0,0,0,0,0,0,0,0,0,0,0,0,0,0,0,0,0,0,0,0,0,0,0],"sum_hessian":[1.0750696E2,2.0970495E1,8.653646E1,7.5337667E0,1.3436729E1,1.4267626E1,7.226884E1,5.9693522E0,1.5644147E0,1.02567835E1,3.179946E0,1.1067926E1,3.1996999E0,1.3498987E0,7.091894E1,4.611996E0,5.6447873E0,8.224219E0,2.843707E0,1.8569552E0,1.3427447E0,6.3860214E1,7.0587244E0,2.8358748E0,1.7761211E0,4.522488E0,1.1222993E0,4.6296206E0,3.5945988E0,1.1190401E0,1.724667E0,5.3055325E1,1.0804891E1,5.9982424E0,1.060482E0,1.7813574E0,1.0545175E0,2.5316386E0,1.9908494E0,1.8416132E0,1.7529856E0,7.9206066E0,4.5134716E1,6.4420705E0,4.36282E0,3.0868058E0,2.9114366E0],"tree_param":{"num_deleted":"0","num_feature":"8","num_nodes":"47","size_leaf_vector":"1"}},{"base_weights":[-2.2145208E-2,-7.508245E-2,4.9264175E-1,-1.0940393E-1,5.896883E-1,6.3485605E-1,-3.641441E-2,-5.3728604E-1,-4.922323E-2,2.6145065E-1,-5.372979E-2,1.7245385E-1,2.6516148E-1,-2.9410955E-1,-1.2114278E-1,1.2659585E-1,-2.1990582E-1,-1.0438176E-1,2.086136E-1,-5.7283175E-1,5.7287264E-1,5.9323777E-2,2.8708038E-1,-7.15086E-1,-9.251156E-2,-2.743679E-1,8.9151524E-2,3.3917654E-1,-7.9882324E-2,3.909458E-2,-1.9409417E-1,2.7613841E-2,-2.575247E-1,-1.0588205E-1,1.0096484E-1],"categories":[],"categories_nodes":[],"categories_segments":[],"categories_sizes":[],"default_left":[0,0,0,0,0,0,0,0,0,0,0,0,0,0,0,0,0,0,0,0,0,0,0,0,0,0,0,0,0,0,0,0,0,0,0],"id":10,"left_children":[1,3,5,7,9,11,-1,13,15,-1,-1,17,-1,-1,19,21,23,-1,-1,25,27,29,-1,31,33,-1,-1,-1,-1,-1,-1,-1,-1,-1,-1],"loss_changes":[2.858662E0,2.2264428E0,9.3169E-1,2.3154569E0,1.1978583E0,7.810595E-1,0E0,1.930367E0,2.453592E0,0E0,0E0,1.3522494E0,0E0,0E0,2.482348E0,2.2028375E0,2.5443027E0,0E0,0E0,1.6580179E0,1.8029641E0,2.014092E0,0E0,1.0414095E0,3.9248822E0,0E0,0E0,0E0,0E0,0E0,0E0,0E0,0E0,0E0,0E0],"parents":[2147483647,0,0,1,1,2,2,3,3,4,4,5,5,7,7,8,8,11,11,14,14,15,15,16,16,19,19,20,20,21,21,23,23,24,24],"right_children":[2,4,6,8,10,12,-1,14,16,-1,-1,18,-1,-1,20,22,24,-1,-1,26,28,30,-1,32,34,-1,-1,-1,-1,-1,-1,-1,-1,-1,-1],"split_conditions":[1.4812205E0,1.8986119E0,1.9785513E0,-9.955417E-1,8.7375766E-1,-1.7066707E-1,-3.641441E-2,-2.606902E-1,1.281017E-1,2.6145065E-1,-5.372979E-2,3.2823887E-1,2.6516148E-1,-2.9410955E-1,-5.416505E-1,-2.5311839E-2,-7.552513E-1,-1.0438176E-1,2.086136E-1,2.9660887E-1,-1.1900902E0,9.110507E-1,2.8708038E-1,-6.9748896E-1,7.2997427E-1,-2.743679E-1,8.9151524E-2,3.3917654E-1,-7.9882324E-2,3.909458E-2,-1.9409417E-1,2.7613841E-2,-2.575247E-1,-1.0588205E-1,1.0096484E-1],"split_indices":[1,5,6,2,6,4,0,1,2,0,0,7,0,0,0,2,6,0,0,4,2,1,0,7,7,0,0,0,0,0,0,0,0,0,0],"split_type":[0,0,0,0,0,0,0,0,0,0,0,0,0,0,0,0,0,0,0,0,0,0,0,0,0,0,0,0,0,0,0,0,0,0,0],"sum_hessian":[1.0254231E2,9.3755295E1,8.787019E0,8.9946846E1,3.8084435E0,7.1070266E0,1.6799917E0,1.0113368E1,7.983348E1,2.6890976E0,1.1193459E0,3.0800881E0,4.0269384E0,4.241496E0,5.8718715E0,3.9452255E1,4.0381226E1,1.7115017E0,1.3685865E0,3.662684E0,2.2091875E0,3.748662E1,1.965632E0,7.3190365E0,3.306219E1,2.592977E0,1.0697068E0,1.1185006E0,1.090687E0,3.4803936E1,2.6826875E0,1.1576672E0,6.1613693E0,2.06846E1,1.2377589E1],"tree_param":{"num_deleted":"0","num_feature":"8","num_nodes":"35","size_leaf_vector":"1"}},{"base_weights":[-1.324337E-2,-7.449641E-2,3.5507247E-1,-4.6561837E-1,-5.1969923E-3,1.1851389E-2,5.0361407E-1,-2.1326424E-1,-8.072344E-1,2.1252822E-2,-2.6697668E-1,4.0600443E-1,-1.4235277E-1,6.152676E-1,-6.4094774E-3,-6.126442E-1,2.2114655E-1,-2.697405E-1,-7.3369056E-2,-4.0589982E-1,7.186412E-2,-2.6542205E-2,1.9660498E-1,1.629657E-2,7.746882E-1,-2.5533602E-1,4.446015E-2,6.6900736E-1,-1.0454762E-1,-7.089939E-1,1.7205442E-1,-2.0933196E-1,1.0040564E-1,2.6727137E-1,9.559307E-2,3.8023353E-2,2.6926222E-1,-2.7668196E-1,-6.6752997E-3,1.8955836E-1,-1.383352E-1,3.8939938E-2,-2.0765714E-1],"categories":[],"categories_nodes":[],"categories_segments":[],"categories_sizes":[],"default_left":[0,0,0,0,0,0,0,0,0,0,0,0,0,0,0,0,0,0,0,0,0,0,0,0,0,0,0,0,0,0,0,0,0,0,0,0,0,0,0,0,0,0,0],"id":11,"left_children":[1,3,5,7,9,11,13,15,17,19,-1,21,-1,23,-1,25,27,-1,-1,29,31,-1,-1,-1,33,-1,-1,35,-1,37,39,-1,41,-1,-1,-1,-1,-1,-1,-1,-1,-1,-1],"loss_changes":[2.2880836E0,2.349702E0,7.3164344E-1,9.5287895E-1,1.7676444E0,1.2267373E0,6.036196E-1,1.6734705E0,4.8242807E-2,1.6189454E0,0E0,4.9179596E-1,0E0,7.037749E-1,0E0,1.0122714E0,1.5038688E0,0E0,0E0,1.5129507E0,1.5329592E0,0E0,0E0,0E0,5.6339502E-2,0E0,0E0,2.7425408E-1,0E0,7.710061E-1,1.3209242E0,0E0,1.6062753E0,0E0,0E0,0E0,0E0,0E0,0E0,0E0,0E0,0E0,0E0],"parents":[2147483647,0,0,1,1,2,2,3,3,4,4,5,5,6,6,7,7,8,8,9,9,11,11,13,13,15,15,16,16,19,19,20,20,24,24,27,27,29,29,30,30,32,32],"right_children":[2,4,6,8,10,12,14,16,18,20,-1,22,-1,24,-1,26,28,-1,-1,30,32,-1,-1,-1,34,-1,-1,36,-1,38,40,-1,42,-1,-1,-1,-1,-1,-1,-1,-1,-1,-1],"split_conditions":[1.0933305E0,-6.7447686E-1,-1.9486152E-1,-2.5311839E-2,1.0304186E0,-3.7549782E-1,1.2664447E0,-5.416505E-1,8.005881E-1,-9.5297486E-1,-2.6697668E-1,-3.602523E-1,-1.4235277E-1,-5.611086E-1,-6.4094774E-3,-7.357633E-1,-3.537922E-1,-2.697405E-1,-7.3369056E-2,3.4057322E-1,-1.3694397E0,-2.6542205E-2,1.9660498E-1,1.629657E-2,9.8042184E-1,-2.5533602E-1,4.446015E-2,-4.7378504E-1,-1.0454762E-1,3.829749E-1,-9.5646167E-1,-2.0933196E-1,2.1503541E0,2.6727137E-1,9.559307E-2,3.8023353E-2,2.6926222E-1,-2.7668196E-1,-6.6752997E-3,1.8955836E-1,-1.383352E-1,3.8939938E-2,-2.0765714E-1],"split_indices":[1,5,2,2,1,2,4,0,2,7,0,6,0,5,0,5,7,0,0,3,1,0,0,0,7,0,0,6,0,6,7,0,3,0,0,0,0,0,0,0,0,0,0],"split_type":[0,0,0,0,0,0,0,0,0,0,0,0,0,0,0,0,0,0,0,0,0,0,0,0,0,0,0,0,0,0,0,0,0,0,0,0,0,0,0,0,0,0,0],"sum_hessian":[9.924758E1,8.577967E1,1.3467915E1,1.2050183E1,7.3729485E1,4.394271E0,9.073644E0,7.8647323E0,4.185451E0,7.2536896E1,1.1925906E0,2.5184808E0,1.8757904E0,7.340472E0,1.7331709E0,3.883818E0,3.9809146E0,3.0838006E0,1.1016508E0,6.9404526E0,6.559644E1,1.0605242E0,1.4579564E0,1.9211963E0,5.419276E0,2.8666544E0,1.0171635E0,2.1310222E0,1.8498924E0,4.404099E0,2.5363536E0,1.5071692E0,6.408927E1,3.5588171E0,1.8604589E0,1.0927498E0,1.0382723E0,3.098761E0,1.305338E0,1.4705303E0,1.0658232E0,6.260379E1,1.4854829E0],"tree_param":{"num_deleted":"0","num_feature":"8","num_nodes":"43","size_leaf_vector":"1"}},{"base_weights":[-1.9041454E-2,-7.0598915E-2,3.027006E-1,-6.5590507E-1,-3.4041546E-2,-3.379405E-2,3.830596E-1,-2.3764995E-1,-1.848822E-2,-2.2315754E-1,-1.2037644E-2,5.57852E-1,-2.0254593E-2,1.946703E-1,-3.6608957E-2,7.0162404E-1,-4.503429E-2,-4.678005E-1,1.8562357E-1,1.607217E-2,-3.9035094E-1,-9.525309E-3,2.5075394E-1,-2.0446078E-1,-5.72926E-3,-1.0983939E-1,2.0410968E-2,7.7361494E-2,-2.3254839E-1],"categories":[],"categories_nodes":[],"categories_segments":[],"categories_sizes":[],"default_left":[0,0,0,0,0,0,0,0,0,0,0,0,0,0,0,0,0,0,0,0,0,0,0,0,0,0,0,0,0],"id":12,"left_children":[1,3,5,7,9,-1,11,-1,-1,-1,13,15,17,-1,19,21,-1,23,-1,25,27,-1,-1,-1,-1,-1,-1,-1,-1],"loss_changes":[1.6362759E0,1.7904019E0,4.9823713E-1,3.5003757E-1,1.2529203E0,0E0,8.326993E-1,0E0,0E0,0E0,1.31289E0,9.362817E-1,1.5729038E0,0E0,1.4501711E0,7.1184707E-1,0E0,2.9471982E-1,0E0,1.3833642E0,2.7149553E0,0E0,0E0,0E0,0E0,0E0,0E0,0E0,0E0],"parents":[2147483647,0,0,1,1,2,2,3,3,4,4,6,6,10,10,11,11,12,12,14,14,15,15,17,17,19,19,20,20],"right_children":[2,4,6,8,10,-1,12,-1,-1,-1,14,16,18,-1,20,22,-1,24,-1,26,28,-1,-1,-1,-1,-1,-1,-1,-1],"split_conditions":[1.0933305E0,-1.0122999E0,-7.9295015E-1,5.681559E-1,-1.0445875E0,-3.379405E-2,9.8042184E-1,-2.3764995E-1,-1.848822E-2,-2.2315754E-1,-9.962656E-1,2.8534374E0,6.439695E-1,1.946703E-1,1.1067718E0,-5.611086E-1,-4.503429E-2,4.8278508E-1,1.8562357E-1,-9.955417E-1,-7.6176447E-1,-9.525309E-3,2.5075394E-1,-2.0446078E-1,-5.72926E-3,-1.0983939E-1,2.0410968E-2,7.7361494E-2,-2.3254839E-1],"split_indices":[1,5,6,6,6,0,7,0,0,0,6,4,0,0,2,5,0,2,0,2,0,0,0,0,0,0,0,0,0],"split_type":[0,0,0,0,0,0,0,0,0,0,0,0,0,0,0,0,0,0,0,0,0,0,0,0,0,0,0,0,0],"sum_hessian":[9.635266E1,8.371789E1,1.2634775E1,3.9255521E0,7.9792336E1,1.9830887E0,1.0651686E1,2.922471E0,1.003081E0,1.4127616E0,7.837957E1,7.163797E0,3.4878893E0,1.8986732E0,7.6480896E1,5.962006E0,1.2017907E0,2.208798E0,1.2790915E0,6.739817E1,9.082727E0,1.0404665E0,4.9215393E0,1.1446518E0,1.0641462E0,7.3431E0,6.0055073E1,3.5062447E0,5.5764823E0],"tree_param":{"num_deleted":"0","num_feature":"8","num_nodes":"29","size_leaf_vector":"1"}},{"base_weights":[-1.759069E-2,-3.8889846E-1,1.9713325E-2,-7.1867704E-1,2.1055542E-1,-2.426039E-2,3.0784252E-1,-2.6619577E-1,1.2732479E-2,-7.731556E-2,1.6855453E-1,2.7086802E-2,-4.8200762E-1,4.3701577E-1,-1.3551597E-1,5.914724E-1,-1.34486E-3,-1.274276E-1,-8.297167E-1,4.976907E-2,6.842626E-1,3.688289E-1,-6.0752198E-2,-6.5682195E-2,3.1653115E-1,-2.0226443E-1,1.624406E-1,-6.705583E-2,-3.1139606E-1,3.8454154E-1,-1.6741316E-1,3.4231674E-2,2.3350893E-1,-1.8443145E-3,-2.2895168E-1,1.8984646E-2,2.3757687E-1,-1.407642E-1,2.535029E-1],"categories":[],"categories_nodes":[],"categories_segments":[],"categories_sizes":[],"default_left":[0,0,0,0,0,0,0,0,0,0,0,0,0,0,0,0,0,0,0,0,0,0,0,0,0,0,0,0,0,0,0,0,0,0,0,0,0,0,0],"id":13,"left_children":[1,3,5,7,9,11,13,-1,-1,-1,-1,15,17,19,-1,21,23,25,27,29,31,-1,-1,33,35,-1,-1,-1,-1,37,-1,-1,-1,-1,-1,-1,-1,-1,-1],"loss_changes":[1.3250643E0,1.8773841E0,1.1145694E0,7.8972673E-1,7.817622E-1,1.8166633E0,1.3397523E0,0E0,0E0,0E0,0E0,1.1231346E0,8.550502E-1,9.6734E-1,0E0,1.9492542E0,1.403022E0,2.2083135E0,2.4182582E-1,1.2633281E0,2.4945521E-1,0E0,0E0,2.3637917E0,1.3402464E0,0E0,0E0,0E0,0E0,1.9357957E0,0E0,0E0,0E0,0E0,0E0,0E0,0E0,0E0,0E0],"parents":[2147483647,0,0,1,1,2,2,3,3,4,4,5,5,6,6,11,11,12,12,13,13,15,15,16,16,17,17,18,18,19,19,20,20,23,23,24,24,29,29],"right_children":[2,4,6,8,10,12,14,-1,-1,-1,-1,16,18,20,-1,22,24,26,28,30,32,-1,-1,34,36,-1,-1,-1,-1,38,-1,-1,-1,-1,-1,-1,-1,-1,-1],"split_conditions":[-9.420677E-1,1.2719086E-1,1.2291023E0,5.5277634E-1,-2.4698552E-2,9.089019E-1,1.1570059E0,-2.6619577E-1,1.2732479E-2,-7.731556E-2,1.6855453E-1,-8.4344333E-1,5.7171535E-1,7.705025E-2,-1.3551597E-1,-6.3687146E-1,8.037251E-1,-5.5230814E-1,1.0666909E0,-8.732361E-2,1.4183115E0,3.688289E-1,-6.0752198E-2,6.647997E-1,6.558405E-1,-2.0226443E-1,1.624406E-1,-6.705583E-2,-3.1139606E-1,-1.1373066E0,-1.6741316E-1,3.4231674E-2,2.3350893E-1,-1.8443145E-3,-2.2895168E-1,1.8984646E-2,2.3757687E-1,-1.407642E-1,2.535029E-1],"split_indices":[1,3,5,6,6,5,7,0,0,0,0,1,6,1,0,6,6,6,5,1,5,0,0,6,2,0,0,0,0,0,0,0,0,0,0,0,0,0,0],"split_type":[0,0,0,0,0,0,0,0,0,0,0,0,0,0,0,0,0,0,0,0,0,0,0,0,0,0,0,0,0,0,0,0,0,0,0,0,0,0,0],"sum_hessian":[9.4110245E1,7.7312884E0,8.637895E1,4.8592014E0,2.8720868E0,7.573606E1,1.064289E1,3.8420937E0,1.0171078E0,1.345245E0,1.5268418E0,6.894327E1,6.792794E0,9.458927E0,1.1839626E0,2.356765E0,6.65865E1,4.039722E0,2.7530723E0,4.1540303E0,5.304897E0,1.0026795E0,1.3540856E0,5.6037933E1,1.054857E1,2.2183707E0,1.8213514E0,1.234147E0,1.5189253E0,2.9155393E0,1.2384912E0,1.0649478E0,4.2399487E0,5.2560436E1,3.4774983E0,7.6215568E0,2.9270132E0,1.0148708E0,1.9006686E0],"tree_param":{"num_deleted":"0","num_feature":"8","num_nodes":"39","size_leaf_vector":"1"}},{"base_weights":[-1.4380625E-2,-7.7341855E-2,1.874913E-1,-3.3791516E-2,-4.580926E-1,-1.0504316E-2,5.59481E-1,-6.372947E-2,2.3734374E-1,2.9371455E-1,-8.089108E-1,-2.4041323E-1,4.358394E-1,1.5997598E-1,2.4461617E-1,-3.1578928E-1,4.91942E-2,-4.6811964E-2,1.7808695E-1,-3.4066122E-2,-1.0002033E0,1.2631327E-1,-7.1919066E-1,-7.441807E-2,7.1269804E-1,1.4814717E-1,-9.200846E-2,-6.811565E-1,-9.42833E-2,2.1319811E-1,-6.310196E-4,-1.1168985E-1,-3.926372E-1,-5.700273E-1,5.5662155E-1,-1.07202075E-1,-3.729541E-1,2.5625512E-1,4.9279194E-2,-2.5693244E-1,-3.3764564E-2,4.356857E-2,-2.2137155E-1,1.0346673E-1,-3.3232838E-2,-2.457511E-2,-2.3119609E-1,1.5704999E-2,2.27894E-1,1.1016122E-1,-1.5695754E-1],"categories":[],"categories_nodes":[],"categories_segments":[],"categories_sizes":[],"default_left":[0,0,0,0,0,0,0,0,0,0,0,0,0,0,0,0,0,0,0,0,0,0,0,0,0,0,0,0,0,0,0,0,0,0,0,0,0,0,0,0,0,0,0,0,0,0,0,0,0,0,0],"id":14,"left_children":[1,3,5,7,9,11,13,15,-1,17,19,21,23,25,-1,27,29,-1,-1,-1,31,33,35,-1,37,-1,-1,39,41,-1,43,-1,-1,45,47,49,-1,-1,-1,-1,-1,-1,-1,-1,-1,-1,-1,-1,-1,-1,-1],"loss_changes":[1.1976552E0,1.1728575E0,1.6573565E0,1.6653266E0,2.1566362E0,1.7071948E0,6.677506E-1,1.8378973E0,0E0,5.038431E-1,5.817604E-1,2.0136166E0,1.2492919E0,8.202096E-1,0E0,1.5498323E0,1.4862117E0,0E0,0E0,0E0,2.822821E-1,2.4302764E0,1.4377935E0,0E0,1.9259119E-1,0E0,0E0,6.378393E-1,2.200104E0,0E0,1.6717092E0,0E0,0E0,2.490015E-1,4.5824504E-1,8.540681E-1,0E0,0E0,0E0,0E0,0E0,0E0,0E0,0E0,0E0,0E0,0E0,0E0,0E0,0E0,0E0],"parents":[2147483647,0,0,1,1,2,2,3,3,4,4,5,5,6,6,7,7,9,9,10,10,11,11,12,12,13,13,15,15,16,16,20,20,21,21,22,22,24,24,27,27,28,28,30,30,33,33,34,34,35,35],"right_children":[2,4,6,8,10,12,14,16,-1,18,20,22,24,26,-1,28,30,-1,-1,-1,32,34,36,-1,38,-1,-1,40,42,-1,44,-1,-1,46,48,50,-1,-1,-1,-1,-1,-1,-1,-1,-1,-1,-1,-1,-1,-1,-1],"split_conditions":[6.439695E-1,6.3994724E-1,-1.7066707E-1,3.6824685E-1,-6.7915314E-1,-3.657457E-3,7.553134E-1,-1.6359061E-1,2.3734374E-1,-2.5311839E-2,-3.647229E-1,1.7093767E0,-4.088764E-1,3.1216496E-1,2.4461617E-1,-2.1882269E-1,-8.676089E-2,-4.6811964E-2,1.7808695E-1,-3.4066122E-2,4.7951707E-1,-3.6210775E-1,6.5192296E-3,-7.441807E-2,4.0809497E-1,1.4814717E-1,-9.200846E-2,6.22518E-1,3.1817064E-1,2.1319811E-1,-5.283186E-1,-1.1168985E-1,-3.926372E-1,7.2997427E-1,9.725986E-1,-2.5169748E-1,-3.729541E-1,2.5625512E-1,4.9279194E-2,-2.5693244E-1,-3.3764564E-2,4.356857E-2,-2.2137155E-1,1.0346673E-1,-3.3232838E-2,-2.457511E-2,-2.3119609E-1,1.5704999E-2,2.27894E-1,1.1016122E-1,-1.5695754E-1],"split_indices":[0,0,4,0,6,3,7,5,0,2,5,0,4,5,0,1,5,0,0,0,6,1,5,0,2,0,0,6,2,0,2,0,0,7,0,1,0,0,0,0,0,0,0,0,0,0,0,0,0,0,0],"split_type":[0,0,0,0,0,0,0,0,0,0,0,0,0,0,0,0,0,0,0,0,0,0,0,0,0,0,0,0,0,0,0,0,0,0,0,0,0,0,0,0,0,0,0,0,0,0,0,0,0,0,0],"sum_hessian":[9.208769E1,7.0665054E1,2.1422636E1,6.4388985E1,6.2760735E0,1.4615264E1,6.8073726E0,6.3024494E1,1.3644874E0,2.0486236E0,4.2274494E0,9.950958E0,4.6643057E0,3.2924836E0,3.514889E0,1.8943575E1,4.408092E1,1.0114791E0,1.0371445E0,1.2558801E0,2.9715695E0,6.0517263E0,3.899232E0,1.3740728E0,3.290233E0,1.8854687E0,1.4070148E0,6.3667326E0,1.2576841E1,2.1587586E0,4.192216E1,1.7062367E0,1.2653328E0,2.187362E0,3.8643641E0,2.3542256E0,1.5450064E0,2.1723197E0,1.1179132E0,4.479598E0,1.8871343E0,9.730263E0,2.8465786E0,9.618415E0,3.2303745E1,1.0474044E0,1.1399577E0,1.4702995E0,2.3940647E0,1.1546767E0,1.199549E0],"tree_param":{"num_deleted":"0","num_feature":"8","num_nodes":"51","size_leaf_vector":"1"}},{"base_weights":[-1.2627638E-2,-3.4408653E-1,2.3990357E-2,-2.4036771E-1,-2.8393827E-3,5.9193466E-2,-3.7442797E-1,-4.424453E-1,5.38267E-1,-9.54E-3,3.2276225E-1,-7.44954E-1,1.2325631E-1,-2.3408002E-1,5.076279E-2,2.1797039E-1,2.4848497E-2,4.2289495E-1,-8.712762E-2,-3.0126193E-1,4.8485488E-1,-2.844139E-1,-2.1695657E-2,-5.5127412E-2,9.150192E-2,-1.4423223E-1,6.993438E-1,-3.3290725E-2,-5.790783E-1,-2.1728054E-1,1.1117367E-1,6.453971E-1,-1.9092545E-1,2.8776926E-1,1.696936E-2,-5.6574397E-2,6.1717145E-2,-2.6478678E-1,6.999568E-2,2.2857238E-1,-7.2008096E-2,-1.6195577E-1,7.197532E-2],"categories":[],"categories_nodes":[],"categories_segments":[],"categories_sizes":[],"default_left":[0,0,0,0,0,0,0,0,0,0,0,0,0,0,0,0,0,0,0,0,0,0,0,0,0,0,0,0,0,0,0,0,0,0,0,0,0,0,0,0,0,0,0],"id":15,"left_children":[1,3,5,-1,7,9,11,13,15,17,19,21,23,-1,-1,-1,-1,25,27,29,31,-1,-1,-1,-1,-1,33,35,37,-1,-1,39,41,-1,-1,-1,-1,-1,-1,-1,-1,-1,-1],"loss_changes":[1.1067772E0,1.4125103E0,1.1784065E0,0E0,1.7121226E0,1.3909286E0,1.3511539E0,9.518799E-1,2.1671236E-1,2.1081376E0,1.7517738E0,4.8560548E-1,2.6655352E-1,0E0,0E0,0E0,0E0,2.7250504E0,1.3889949E0,1.3739119E0,1.5319316E0,0E0,0E0,0E0,0E0,0E0,1.2369771E0,1.8570807E0,1.4842888E0,0E0,0E0,1.2887998E0,6.202438E-1,0E0,0E0,0E0,0E0,0E0,0E0,0E0,0E0,0E0,0E0],"parents":[2147483647,0,0,1,1,2,2,4,4,5,5,6,6,7,7,8,8,9,9,10,10,11,11,12,12,17,17,18,18,19,19,20,20,26,26,27,27,28,28,31,31,32,32],"right_children":[2,4,6,-1,8,10,12,14,16,18,20,22,24,-1,-1,-1,-1,26,28,30,32,-1,-1,-1,-1,-1,34,36,38,-1,-1,40,42,-1,-1,-1,-1,-1,-1,-1,-1,-1,-1],"split_conditions":[-9.5297486E-1,-9.0675324E-2,2.0216098E0,-2.4036771E-1,1.1513809E-1,7.553134E-1,6.9115156E-1,2.8288874E-1,4.4175472E-2,-8.62736E-1,-7.848573E-1,8.005881E-1,-3.3535293E-1,-2.3408002E-1,5.076279E-2,2.1797039E-1,2.4848497E-2,-5.475704E-1,1.0115992E0,7.0732445E-1,1.0694956E0,-2.844139E-1,-2.1695657E-2,-5.5127412E-2,9.150192E-2,-1.4423223E-1,4.8278508E-1,3.6615007E-2,1.1984932E0,-2.1728054E-1,1.1117367E-1,1.3262916E0,4.7554065E-2,2.8776926E-1,1.696936E-2,-5.6574397E-2,6.1717145E-2,-2.6478678E-1,6.999568E-2,2.2857238E-1,-7.2008096E-2,-1.6195577E-1,7.197532E-2],"split_indices":[7,3,7,0,6,7,1,1,1,0,6,2,5,0,0,0,0,1,4,1,6,0,0,0,0,0,2,6,1,0,0,1,0,0,0,0,0,0,0,0,0,0,0],"split_type":[0,0,0,0,0,0,0,0,0,0,0,0,0,0,0,0,0,0,0,0,0,0,0,0,0,0,0,0,0,0,0,0,0,0,0,0,0,0,0,0,0,0,0],"sum_hessian":[8.950752E1,8.069285E0,8.143823E1,2.8728478E0,5.1964374E0,7.560906E1,5.8291726E0,2.9677272E0,2.2287102E0,6.073452E1,1.4874543E1,3.0566533E0,2.7725194E0,1.7342322E0,1.233495E0,1.1556096E0,1.0731007E0,8.562247E0,5.217227E1,2.8900087E0,1.1984534E1,2.0332823E0,1.023371E0,1.0268701E0,1.7456491E0,1.8326119E0,6.7296352E0,4.7988316E1,4.183957E0,1.7255356E0,1.1644729E0,9.720287E0,2.264247E0,4.4415293E0,2.288106E0,2.921681E1,1.8771505E1,2.9829607E0,1.2009964E0,8.713233E0,1.0070543E0,1.1112578E0,1.152989E0],"tree_param":{"num_deleted":"0","num_feature":"8","num_nodes":"43","size_leaf_vector":"1"}},{"base_weights":[-1.47918295E-2,-4.671349E-2,3.1415415E-1,-1.9144899E-1,4.7407113E-2,4.4802263E-1,-5.1939536E-2,-2.8290933E-1,2.8239012E-1,-1.8519025E-2,6.8473965E-1,-2.0428522E-2,2.3877306E-1,-3.8035703E-1,4.1590482E-1,5.5419743E-1,-6.158244E-2,2.501072E-1,-7.535982E-2,2.5330743E-1,2.5600934E-2,-1.1257161E-1,1.2662074E-1,-2.4513592E-1,-8.532415E-1,-3.8047936E-2,2.0126419E-1,-3.7105564E-2,2.5300094E-1,9.691306E-3,-5.797937E-1,-2.082279E-1,-3.387289E-2,-9.299429E-2,-2.933874E-1,2.5025347E-2,-2.04254E-1,-3.110763E-1,6.4860806E-2],"categories":[],"categories_nodes":[],"categories_segments":[],"categories_sizes":[],"default_left":[0,0,0,0,0,0,0,0,0,0,0,0,0,0,0,0,0,0,0,0,0,0,0,0,0,0,0,0,0,0,0,0,0,0,0,0,0,0,0],"id":16,"left_children":[1,3,5,7,9,11,-1,13,15,17,19,21,-1,23,25,27,-1,-1,29,-1,-1,-1,-1,31,33,-1,-1,-1,-1,35,37,-1,-1,-1,-1,-1,-1,-1,-1],"loss_changes":[9.339612E-1,1.1080538E0,5.911844E-1,1.4661498E0,2.1003168E0,1.0683014E0,0E0,2.018065E0,8.660886E-1,2.2911568E0,3.76096E-1,7.4337256E-1,0E0,1.3569329E0,6.137282E-1,8.716074E-1,0E0,0E0,1.8951523E0,0E0,0E0,0E0,0E0,1.1355443E0,3.8529873E-2,0E0,0E0,0E0,0E0,2.025595E0,2.5423698E0,0E0,0E0,0E0,0E0,0E0,0E0,0E0,0E0],"parents":[2147483647,0,0,1,1,2,2,3,3,4,4,5,5,7,7,8,8,9,9,10,10,11,11,13,13,14,14,15,15,18,18,23,23,24,24,29,29,30,30],"right_children":[2,4,6,8,10,12,-1,14,16,18,20,22,-1,24,26,28,-1,-1,30,-1,-1,-1,-1,32,34,-1,-1,-1,-1,36,38,-1,-1,-1,-1,-1,-1,-1,-1],"split_conditions":[1.4577906E0,-5.416505E-1,1.9785513E0,9.633279E-1,1.2688234E0,-1.7066707E-1,-5.1939536E-2,1.4183115E0,1.4183115E0,-2.5095212E-1,1.5159285E0,3.2823887E-1,2.3877306E-1,8.6523825E-1,-1.2691787E-1,-1.0790026E-1,-6.158244E-2,2.501072E-1,2.5716686E-1,2.5330743E-1,2.5600934E-2,-1.1257161E-1,1.2662074E-1,-9.955417E-1,-5.3418744E-1,-3.8047936E-2,2.0126419E-1,-3.7105564E-2,2.5300094E-1,2.0216098E0,6.439695E-1,-2.082279E-1,-3.387289E-2,-9.299429E-2,-2.933874E-1,2.5025347E-2,-2.04254E-1,-3.110763E-1,6.4860806E-2],"split_indices":[1,0,6,2,6,4,0,5,5,0,0,7,0,5,1,5,0,0,4,0,0,0,0,2,6,0,0,0,0,7,0,0,0,0,0,0,0,0,0],"split_type":[0,0,0,0,0,0,0,0,0,0,0,0,0,0,0,0,0,0,0,0,0,0,0,0,0,0,0,0,0,0,0,0,0,0,0,0,0,0,0],"sum_hessian":[8.654686E1,7.967319E1,6.8736753E0,3.0987528E1,4.8685658E1,5.455501E0,1.4181744E0,2.6311775E1,4.675752E0,4.5001602E1,3.6840553E0,2.726025E0,2.729476E0,2.3491642E1,2.820134E0,2.9147449E0,1.7610073E0,1.9592719E0,4.304233E1,2.5865924E0,1.0974628E0,1.5972736E0,1.1287516E0,1.9448683E1,4.0429583E0,1.062063E0,1.758071E0,1.0426036E0,1.8721411E0,3.7671444E1,5.370885E0,3.4580488E0,1.5990635E1,1.4056187E0,2.6373396E0,3.4831768E1,2.8396769E0,3.219379E0,2.1515057E0],"tree_param":{"num_deleted":"0","num_feature":"8","num_nodes":"39","size_leaf_vector":"1"}},{"base_weights":[-1.0007328E-2,-1.8995067E-1,7.369797E-3,-1.7661816E-1,2.3609014E-2,3.9813943E-2,-1.493057E-1,1.0073024E-2,6.7372817E-1,3.5777394E-2,-5.350842E-1,5.4884374E-2,2.4143812E-1,2.9138103E-3,1.665511E-1,3.536041E-2,-2.5002146E-1],"categories":[],"categories_nodes":[],"categories_segments":[],"categories_sizes":[],"default_left":[0,0,0,0,0,0,0,0,0,0,0,0,0,0,0,0,0],"id":17,"left_children":[1,-1,3,-1,5,7,-1,9,11,13,15,-1,-1,-1,-1,-1,-1],"loss_changes":[9.265314E-1,0E0,8.251943E-1,0E0,7.171508E-1,1.5200611E0,0E0,1.1173652E0,8.524048E-2,1.02051E0,7.978276E-1,0E0,0E0,0E0,0E0,0E0,0E0],"parents":[2147483647,0,0,2,2,4,4,5,5,7,7,8,8,9,9,10,10],"right_children":[2,-1,4,-1,6,8,-1,10,12,14,16,-1,-1,-1,-1,-1,-1],"split_conditions":[-1.3694397E0,-1.8995067E-1,-1.0445875E0,-1.7661816E-1,2.9268687E0,2.1446579E0,-1.493057E-1,1.4983524E0,-1.9486152E-1,1.8986119E0,7.571476E-1,5.4884374E-2,2.4143812E-1,2.9138103E-3,1.665511E-1,3.536041E-2,-2.5002146E-1],"split_indices":[1,0,6,0,6,6,0,6,2,5,5,0,0,0,0,0,0],"split_type":[0,0,0,0,0,0,0,0,0,0,0,0,0,0,0,0,0],"sum_hessian":[8.413121E1,1.321024E0,8.281019E1,1.2612102E0,8.154897E1,7.998616E1,1.5628189E0,7.737204E1,2.6141202E0,7.478048E1,2.5915556E0,1.0559441E0,1.5581763E0,7.217712E1,2.603364E0,1.0024117E0,1.5891439E0],"tree_param":{"num_deleted":"0","num_feature":"8","num_nodes":"17","size_leaf_vector":"1"}},{"base_weights":[-1.0149124E-2,-3.99646E-1,1.5519061E-2,-1.8562634E-1,3.5590285E-3,1.8066707E-1,-9.795455E-4,-2.967812E-1,5.222969E-2,-4.9630347E-1,1.4373462E-1,-2.4459207E-1,1.11728616E-1,-7.584366E-1,-1.7533535E-1,2.1134745E-1,-3.5465437E-1,-1.8581617E-1,-7.795995E-2,2.7188978E-1,-1.3764339E-2,-6.390941E-2,-2.608519E-1,4.5045756E-2,-2.2776298E-1,-1.5891533E-1,-1.5863433E-3,7.110392E-2,-1.2130315E-1,-1.533008E-1,1.0144635E-1,1.0842534E-1,-4.6462312E-2],"categories":[],"categories_nodes":[],"categories_segments":[],"categories_sizes":[],"default_left":[0,0,0,0,0,0,0,0,0,0,0,0,0,0,0,0,0,0,0,0,0,0,0,0,0,0,0,0,0,0,0,0,0],"id":18,"left_children":[1,3,5,-1,-1,-1,7,9,11,13,15,17,19,21,23,-1,25,-1,27,29,31,-1,-1,-1,-1,-1,-1,-1,-1,-1,-1,-1,-1],"loss_changes":[8.488722E-1,4.805742E-1,7.7534276E-1,0E0,0E0,0E0,1.2565079E0,1.1410328E0,1.2225385E0,5.9068394E-1,1.5268823E0,6.77061E-1,1.1506459E0,8.3357334E-2,1.0960149E0,0E0,1.858437E-1,0E0,1.0399525E0,1.4758079E0,1.800185E0,0E0,0E0,0E0,0E0,0E0,0E0,0E0,0E0,0E0,0E0,0E0,0E0],"parents":[2147483647,0,0,1,1,2,2,6,6,7,7,8,8,9,9,10,10,11,11,12,12,13,13,14,14,16,16,18,18,19,19,20,20],"right_children":[2,4,6,-1,-1,-1,8,10,12,14,16,18,20,22,24,-1,26,-1,28,30,32,-1,-1,-1,-1,-1,-1,-1,-1,-1,-1,-1,-1],"split_conditions":[-1.040692E0,1.2719086E-1,-1.0619167E0,-1.8562634E-1,3.5590285E-3,1.8066707E-1,-2.3720396E-1,1.2686293E-1,-5.174449E-1,9.399726E-2,4.9674675E-1,-5.2421874E-1,1.6661938E-1,-7.2747505E-1,1.4802318E0,2.1134745E-1,1.1235744E0,-1.8581617E-1,1.1792228E-1,-9.5297486E-1,-2.058463E-1,-6.390941E-2,-2.608519E-1,4.5045756E-2,-2.2776298E-1,-1.5891533E-1,-1.5863433E-3,7.110392E-2,-1.2130315E-1,-1.533008E-1,1.0144635E-1,1.0842534E-1,-4.6462312E-2],"split_indices":[1,3,4,0,0,0,4,1,5,6,1,7,5,6,6,0,1,0,2,7,2,0,0,0,0,0,0,0,0,0,0,0,0],"split_type":[0,0,0,0,0,0,0,0,0,0,0,0,0,0,0,0,0,0,0,0,0,0,0,0,0,0,0,0,0,0,0,0,0],"sum_hessian":[8.3286575E1,4.2485204E0,7.9038055E1,2.4437325E0,1.8047881E0,1.1907976E0,7.784725E1,1.1170485E1,6.667677E1,7.6010914E0,3.5693936E0,1.0614324E1,5.6062447E1,3.4337761E0,4.167315E0,1.4850118E0,2.0843818E0,2.4304872E0,8.183836E0,2.411674E1,3.194571E1,1.074663E0,2.3591132E0,3.1526608E0,1.0146543E0,1.0446813E0,1.0397005E0,4.3040667E0,3.8797693E0,1.3582304E0,2.2758509E1,8.304507E0,2.3641201E1],"tree_param":{"num_deleted":"0","num_feature":"8","num_nodes":"33","size_leaf_vector":"1"}},{"base_weights":[-1.6592972E-2,-5.6415167E-2,2.4639578E-1,-8.033429E-2,4.317907E-1,-1.625322E-1,4.4514912E-1,-3.570916E-1,-4.6021286E-2,1.833061E-1,3.3164339E-3,8.659127E-2,-1.7494383E-1,1.9245605E-1,3.625247E-2,-2.4507052E-1,-6.957643E-3,2.016025E-1,-1.09107174E-1,1.8001105E-1,-1.4198205E-1,1.15501694E-1,-3.370764E-1,3.4297052E-1,-1.8619874E-1,-7.0531034E-1,-4.9134023E-2,-1.6827038E-1,8.029575E-3,-1.5999243E-2,2.089065E-1,-1.6609522E-2,-3.2840592E-1,2.2917022E-1,-2.7740074E-2],"categories":[],"categories_nodes":[],"categories_segments":[],"categories_sizes":[],"default_left":[0,0,0,0,0,0,0,0,0,0,0,0,0,0,0,0,0,0,0,0,0,0,0,0,0,0,0,0,0,0,0,0,0,0,0],"id":19,"left_children":[1,3,5,7,9,11,13,15,17,-1,-1,-1,-1,-1,19,-1,21,23,25,-1,-1,-1,27,29,-1,31,33,-1,-1,-1,-1,-1,-1,-1,-1],"loss_changes":[8.767965E-1,8.7981164E-1,9.681585E-1,6.467474E-1,2.59969E-1,9.91424E-1,5.9376514E-1,1.2106855E0,1.0105274E0,0E0,0E0,0E0,0E0,0E0,1.3046246E0,0E0,8.152806E-1,1.7471907E0,1.7917893E0,0E0,0E0,0E0,2.9262698E-1,1.7046847E0,0E0,1.1019535E0,1.7436478E0,0E0,0E0,0E0,0E0,0E0,0E0,0E0,0E0],"parents":[2147483647,0,0,1,1,2,2,3,3,4,4,5,5,6,6,7,7,8,8,14,14,16,16,17,17,18,18,22,22,23,23,25,25,26,26],"right_children":[2,4,6,8,10,12,14,16,18,-1,-1,-1,-1,-1,20,-1,22,24,26,-1,-1,-1,28,30,-1,32,34,-1,-1,-1,-1,-1,-1,-1,-1],"split_conditions":[1.0933305E0,1.8986119E0,-1.9486152E-1,-9.955417E-1,3.2066262E-1,1.3736828E-1,2.1534665E-1,-2.606902E-1,-3.628757E-1,1.833061E-1,3.3164339E-3,8.659127E-2,-1.7494383E-1,1.9245605E-1,-3.2142663E-1,-2.4507052E-1,-1.446183E0,5.0442225E-1,-3.5589164E-1,1.8001105E-1,-1.4198205E-1,1.15501694E-1,-3.718993E-1,-5.416505E-1,-1.8619874E-1,-5.416505E-1,-2.0042327E-1,-1.6827038E-1,8.029575E-3,-1.5999243E-2,2.089065E-1,-1.6609522E-2,-3.2840592E-1,2.2917022E-1,-2.7740074E-2],"split_indices":[1,5,2,2,6,5,3,1,2,0,0,0,0,0,7,0,2,1,2,0,0,0,5,0,0,0,2,0,0,0,0,0,0,0,0],"split_type":[0,0,0,0,0,0,0,0,0,0,0,0,0,0,0,0,0,0,0,0,0,0,0,0,0,0,0,0,0,0,0,0,0,0,0],"sum_hessian":[8.13941E1,7.137227E1,1.0021824E1,6.883521E1,2.5370572E0,3.3374271E0,6.6843967E0,6.5553164E0,6.22799E1,1.4619951E0,1.0750622E0,1.761612E0,1.575815E0,4.131402E0,2.552995E0,2.2575276E0,4.2977886E0,1.2199382E1,5.0080517E1,1.1276388E0,1.425356E0,1.888835E0,2.4089537E0,1.0907077E1,1.2923051E0,3.5937738E0,4.6486744E1,1.1561288E0,1.252825E0,5.541582E0,5.3654943E0,1.7743026E0,1.8194711E0,1.5108429E0,4.49759E1],"tree_param":{"num_deleted":"0","num_feature":"8","num_nodes":"35","size_leaf_vector":"1"}},{"base_weights":[-1.2413489E-2,-8.787201E-2,1.1260714E-1,-1.9046582E-1,6.518781E-2,-2.0219091E-2,3.843449E-1,7.9996556E-2,-3.0431873E-1,-2.1949953E-1,1.6300662E-1,4.9889088E-2,-2.0770407E-1,4.879389E-1,-2.3731602E-2,3.9355546E-1,-1.9644518E-1,-6.693117E-1,-1.2904438E-1,2.550039E-1,-1.9226237E-1,1.441341E-1,-1.633909E-1,8.587428E-3,6.55735E-1,-1.420865E-1,7.22208E-1,-9.5228046E-1,5.5273097E-2,1.3821173E-1,-3.4942418E-1,-1.6060445E-1,3.3674794E-1,4.784135E-2,2.1029606E-1,1.1540338E-1,-1.0758579E-1,-2.6158432E-2,2.5148597E-1,-1.9319215E-1,9.966112E-2,2.298491E-2,2.7438068E-1,-7.877449E-2,-3.172782E-1,-4.7658082E-2,2.1115048E-1,-1.8094142E-1,8.33356E-2,1.436939E-1,-3.302334E-2,1.0460735E-1,-8.0933034E-2],"categories":[],"categories_nodes":[],"categories_segments":[],"categories_sizes":[],"default_left":[0,0,0,0,0,0,0,0,0,0,0,0,0,0,0,0,0,0,0,0,0,0,0,0,0,0,0,0,0,0,0,0,0,0,0,0,0,0,0,0,0,0,0,0,0,0,0,0,0,0,0,0,0],"id":20,"left_children":[1,3,5,7,9,11,13,15,17,-1,19,21,-1,23,-1,25,-1,27,29,31,-1,33,-1,35,37,39,41,43,-1,45,47,-1,49,51,-1,-1,-1,-1,-1,-1,-1,-1,-1,-1,-1,-1,-1,-1,-1,-1,-1,-1,-1],"loss_changes":[7.724022E-1,8.127322E-1,1.1216536E0,9.717884E-1,1.7715605E0,1.0560691E0,5.274496E-1,2.5403295E0,1.3121846E0,0E0,1.620172E0,1.2307049E0,0E0,6.7495203E-1,0E0,1.4349644E0,0E0,1.830759E0,9.911257E-1,1.3684171E0,0E0,9.606307E-1,0E0,5.808773E-1,9.213145E-1,1.0979029E0,5.329435E-1,1.07926846E-1,0E0,1.4478413E0,1.6087676E0,0E0,1.1509464E0,1.7070885E0,0E0,0E0,0E0,0E0,0E0,0E0,0E0,0E0,0E0,0E0,0E0,0E0,0E0,0E0,0E0,0E0,0E0,0E0,0E0],"parents":[2147483647,0,0,1,1,2,2,3,3,4,4,5,5,6,6,7,7,8,8,10,10,11,11,13,13,15,15,17,17,18,18,19,19,21,21,23,23,24,24,25,25,26,26,27,27,29,29,30,30,32,32,33,33],"right_children":[2,4,6,8,10,12,14,16,18,-1,20,22,-1,24,-1,26,-1,28,30,32,-1,34,-1,36,38,40,42,44,-1,46,48,-1,50,52,-1,-1,-1,-1,-1,-1,-1,-1,-1,-1,-1,-1,-1,-1,-1,-1,-1,-1,-1],"split_conditions":[2.6598898E-1,4.7554065E-2,3.4057322E-1,-5.6740874E-1,-6.4489675E-1,1.8278131E0,2.1468203E0,1.2719086E-1,7.285643E-2,-2.1949953E-1,1.8389789E0,9.001809E-2,-2.0770407E-1,-8.442674E-1,-2.3731602E-2,-1.0790026E-1,-1.9644518E-1,3.2823887E-1,6.768802E-1,-9.3731743E-1,-1.9226237E-1,9.725986E-1,-1.633909E-1,4.8278508E-1,-3.8645387E-1,-8.3015907E-1,-9.0675324E-2,-3.8645387E-1,5.5273097E-2,4.2469463E-1,6.558405E-1,-1.6060445E-1,1.1300703E-2,3.143376E-1,2.1029606E-1,1.1540338E-1,-1.0758579E-1,-2.6158432E-2,2.5148597E-1,-1.9319215E-1,9.966112E-2,2.298491E-2,2.7438068E-1,-7.877449E-2,-3.172782E-1,-4.7658082E-2,2.1115048E-1,-1.8094142E-1,8.33356E-2,1.436939E-1,-3.302334E-2,1.0460735E-1,-8.0933034E-2],"split_indices":[1,0,3,6,4,0,4,3,6,0,7,3,0,0,0,5,0,7,6,6,0,0,0,2,5,6,3,5,0,6,2,0,1,7,0,0,0,0,0,0,0,0,0,0,0,0,0,0,0,0,0,0,0],"split_type":[0,0,0,0,0,0,0,0,0,0,0,0,0,0,0,0,0,0,0,0,0,0,0,0,0,0,0,0,0,0,0,0,0,0,0,0,0,0,0,0,0,0,0,0,0,0,0,0,0,0,0,0,0],"sum_hessian":[7.982653E1,4.9965847E1,2.986068E1,2.9768238E1,2.019761E1,2.0678541E1,9.182138E0,8.906898E0,2.0861341E1,1.4998349E0,1.8697775E1,1.9563671E1,1.1148694E0,7.461456E0,1.7206824E0,6.568436E0,2.3384612E0,5.853437E0,1.5007904E1,1.739038E1,1.3073955E0,1.7540665E1,2.023007E0,2.207204E0,5.254252E0,2.7135417E0,3.8548942E0,4.3091974E0,1.5442393E0,6.9511023E0,8.056802E0,1.1099191E0,1.628046E1,1.5880476E1,1.6601887E0,1.066907E0,1.1402972E0,1.1394379E0,4.114814E0,1.1445897E0,1.5689521E0,1.2060703E0,2.6488237E0,1.0335833E0,3.2756145E0,5.0289693E0,1.9221331E0,5.7636957E0,2.2931063E0,1.2294854E1,3.9856064E0,8.105277E0,7.7751994E0],"tree_param":{"num_deleted":"0","num_feature":"8","num_nodes":"53","size_leaf_vector":"1"}},{"base_weights":[-1.748689E-2,-1.0493252E-1,8.148304E-2,-3.914885E-2,-5.812868E-1,-3.2277083E-1,1.5509659E-1,-1.280037E-1,7.138715E-1,-4.6075873E-2,-2.233995E-1,-2.2984572E-1,5.4586124E-2,2.7273425E-1,-4.692847E-2,-5.65301E-2,-5.713717E-1,2.844214E-1,3.8355842E-2,1.2804529E-1,-1.3804224E-1,8.7569505E-2,6.4029604E-1,-4.818925E-1,2.8037113E-1,-1.6402487E-1,2.8754213E-1,-7.223013E-1,-1.7748216E-2,2.6619366E-1,-4.995338E-1,-4.539415E-2,8.259975E-1,1.3289523E-2,-6.5054625E-1,5.260282E-1,-2.7721295E-1,2.1820333E-2,-1.3054061E-1,-2.6196435E-2,2.381136E-1,-5.353343E-2,-2.6534942E-1,1.0627523E-1,-8.95019E-2,-2.5535685E-1,3.1104403E-2,2.967846E-1,1.05561264E-1,-2.8872526E-1,-1.9720782E-2,2.4646692E-1,-4.6359155E-2,-1.6020074E-1,3.4234744E-2],"categories":[],"categories_nodes":[],"categories_segments":[],"categories_sizes":[],"default_left":[0,0,0,0,0,0,0,0,0,0,0,0,0,0,0,0,0,0,0,0,0,0,0,0,0,0,0,0,0,0,0,0,0,0,0,0,0,0,0,0,0,0,0,0,0,0,0,0,0,0,0,0,0,0,0],"id":21,"left_children":[1,3,5,7,9,11,13,15,17,-1,-1,-1,19,21,23,25,27,-1,-1,-1,-1,29,31,33,35,37,39,41,-1,43,45,-1,47,-1,49,51,53,-1,-1,-1,-1,-1,-1,-1,-1,-1,-1,-1,-1,-1,-1,-1,-1,-1,-1],"loss_changes":[6.855872E-1,1.2924291E0,1.1588528E0,2.6305618E0,2.3644531E-1,1.0564501E0,7.7794564E-1,1.0702317E0,4.493692E-1,0E0,0E0,0E0,1.0029333E0,1.3387465E0,1.943305E0,1.1963868E0,3.221817E-1,0E0,0E0,0E0,0E0,1.6836923E0,1.1109548E0,5.454385E-1,1.2251531E0,1.5921881E0,1.5416961E0,1.5591109E-1,0E0,7.017191E-1,8.936963E-1,0E0,8.4472895E-2,0E0,7.5240266E-1,1.2964972E0,3.6891502E-1,0E0,0E0,0E0,0E0,0E0,0E0,0E0,0E0,0E0,0E0,0E0,0E0,0E0,0E0,0E0,0E0,0E0,0E0],"parents":[2147483647,0,0,1,1,2,2,3,3,4,4,5,5,6,6,7,7,8,8,12,12,13,13,14,14,15,15,16,16,21,21,22,22,23,23,24,24,25,25,26,26,27,27,29,29,30,30,32,32,34,34,35,35,36,36],"right_children":[2,4,6,8,10,12,14,16,18,-1,-1,-1,20,22,24,26,28,-1,-1,-1,-1,30,32,34,36,38,40,42,-1,44,46,-1,48,-1,50,52,54,-1,-1,-1,-1,-1,-1,-1,-1,-1,-1,-1,-1,-1,-1,-1,-1,-1,-1],"split_conditions":[7.982581E-2,1.1261103E0,-7.848573E-1,6.558405E-1,-8.442674E-1,3.2823887E-1,3.5432827E-1,3.557897E-1,2.607293E-1,-4.6075873E-2,-2.233995E-1,-2.2984572E-1,-8.78481E-1,7.2997427E-1,7.523831E-1,-2.5311839E-2,9.671201E-1,2.844214E-1,3.8355842E-2,1.2804529E-1,-1.3804224E-1,3.1985462E-1,-6.4082164E-1,-4.6603078E-1,1.0666909E0,-4.1373143E-1,-3.6210775E-1,-5.0096613E-1,-1.7748216E-2,6.3994724E-1,2.1177438E-1,-4.539415E-2,8.181432E-1,1.3289523E-2,6.439695E-1,5.221789E-1,1.2436568E0,2.1820333E-2,-1.3054061E-1,-2.6196435E-2,2.381136E-1,-5.353343E-2,-2.6534942E-1,1.0627523E-1,-8.95019E-2,-2.5535685E-1,3.1104403E-2,2.967846E-1,1.05561264E-1,-2.8872526E-1,-1.9720782E-2,2.4646692E-1,-4.6359155E-2,-1.6020074E-1,3.4234744E-2],"split_indices":[1,2,6,2,0,7,6,2,7,0,0,0,6,7,6,2,5,0,0,0,0,7,5,7,5,2,1,6,0,0,5,0,1,0,0,4,5,0,0,0,0,0,0,0,0,0,0,0,0,0,0,0,0,0,0],"split_type":[0,0,0,0,0,0,0,0,0,0,0,0,0,0,0,0,0,0,0,0,0,0,0,0,0,0,0,0,0,0,0,0,0,0,0,0,0,0,0,0,0,0,0,0,0,0,0,0,0,0,0,0,0,0,0],"sum_hessian":[7.722959E1,4.0969994E1,3.6259594E1,3.6949516E1,4.020478E0,5.0642514E0,3.1195345E1,3.3792126E1,3.1573887E0,1.647535E0,2.3729427E0,1.8547139E0,3.2095375E0,1.9494085E1,1.1701259E1,3.0071861E1,3.7202652E0,1.8144387E0,1.3429501E0,1.961698E0,1.2478393E0,1.3786948E1,5.707137E0,4.821461E0,6.8797975E0,2.3312023E1,6.75984E0,2.5567281E0,1.163537E0,1.0989905E1,2.7970428E0,1.1196138E0,4.5875235E0,1.3492411E0,3.4722202E0,4.8150187E0,2.0647786E0,1.2835002E1,1.047702E1,4.3590574E0,2.4007823E0,1.069798E0,1.4869303E0,9.829213E0,1.1606922E0,1.507266E0,1.2897767E0,2.6041453E0,1.983378E0,1.8434448E0,1.6287752E0,3.212732E0,1.6022869E0,1.0265617E0,1.0382168E0],"tree_param":{"num_deleted":"0","num_feature":"8","num_nodes":"55","size_leaf_vector":"1"}},{"base_weights":[-1.7744469E-2,-4.321736E-2,2.7248824E-1,-6.3194476E-2,3.8614455E-1,3.893442E-1,-3.3494595E-2,-3.3566713E-1,-3.1447183E-2,1.659399E-1,3.245559E-3,4.0436555E-2,1.9946958E-1,-2.2567143E-1,-4.5629725E-2,4.2462382E-1,-6.096116E-2,-3.3941135E-2,5.3682823E-2,-3.867411E-1,1.20870456E-1,1.4605076E-2,1.761123E-1,-2.20154E-1,-3.3294737E-2,-2.1333586E-1,5.006574E-2,9.005517E-2,-2.6966512E-2],"categories":[],"categories_nodes":[],"categories_segments":[],"categories_sizes":[],"default_left":[0,0,0,0,0,0,0,0,0,0,0,0,0,0,0,0,0,0,0,0,0,0,0,0,0,0,0,0,0],"id":22,"left_children":[1,3,5,7,9,11,-1,13,15,-1,-1,17,-1,-1,19,21,23,-1,-1,25,-1,-1,-1,-1,27,-1,-1,-1,-1],"loss_changes":[5.728474E-1,6.30236E-1,3.244838E-1,5.806942E-1,1.9964197E-1,4.5603126E-1,0E0,8.149803E-1,8.6475587E-1,0E0,0E0,9.003907E-2,0E0,0E0,9.527421E-1,2.1037138E-1,1.0815184E0,0E0,0E0,7.4162894E-1,0E0,0E0,0E0,0E0,1.1236604E0,0E0,0E0,0E0,0E0],"parents":[2147483647,0,0,1,1,2,2,3,3,4,4,5,5,7,7,8,8,11,11,14,14,15,15,16,16,19,19,24,24],"right_children":[2,4,6,8,10,12,-1,14,16,-1,-1,18,-1,-1,20,22,24,-1,-1,26,-1,-1,-1,-1,28,-1,-1,-1,-1],"split_conditions":[1.4812205E0,1.8986119E0,1.9785513E0,-9.955417E-1,2.933251E-1,-1.7066707E-1,-3.3494595E-2,-2.606902E-1,-6.9376147E-1,1.659399E-1,3.245559E-3,2.3939218E-1,1.9946958E-1,-2.2567143E-1,-5.416505E-1,3.6615007E-2,-1.378189E0,-3.3941135E-2,5.3682823E-2,3.4057322E-1,1.20870456E-1,1.4605076E-2,1.761123E-1,-2.20154E-1,-3.6423883E-1,-2.1333586E-1,5.006574E-2,9.005517E-2,-2.6966512E-2],"split_indices":[1,5,6,2,6,4,0,1,2,0,0,5,0,0,0,6,3,0,0,3,0,0,0,0,3,0,0,0,0],"split_type":[0,0,0,0,0,0,0,0,0,0,0,0,0,0,0,0,0,0,0,0,0,0,0,0,0,0,0,0,0],"sum_hessian":[7.489154E1,6.9631294E1,5.260245E0,6.7350464E1,2.2808278E0,4.0229053E0,1.2373393E0,6.0294375E0,6.132103E1,1.2506529E0,1.0301749E0,2.2811959E0,1.7417094E0,1.8207568E0,4.2086806E0,2.9134297E0,5.84076E1,1.1686147E0,1.1125811E0,2.4688573E0,1.7398235E0,1.2710731E0,1.6423565E0,1.2986177E0,5.7108982E1,1.3773643E0,1.0914929E0,7.6611814E0,4.94478E1],"tree_param":{"num_deleted":"0","num_feature":"8","num_nodes":"29","size_leaf_vector":"1"}},{"base_weights":[-1.1289845E-2,-1.3078383E-1,3.6524988E-3,-2.6757015E-2,2.2037713E-1,-4.833026E-3,-4.5567766E-1,2.1465498E-3,5.839163E-1,3.5913415E-2,-2.8183383E-1,1.6102288E-2,-2.1797322E-1,1.07909806E-1,-2.051242E-1,4.968926E-2,2.0755097E-1,-3.1427916E-2,3.0662966E-1,-5.4968405E-1,1.293112E-1,3.3720475E-2,-1.3407142E-1,8.585022E-2,-2.6373371E-2,-9.9675976E-2,1.2283725E-1,-2.1466875E-1,3.5652157E-2],"categories":[],"categories_nodes":[],"categories_segments":[],"categories_sizes":[],"default_left":[0,0,0,0,0,0,0,0,0,0,0,0,0,0,0,0,0,0,0,0,0,0,0,0,0,0,0,0,0],"id":23,"left_children":[1,-1,3,5,7,9,11,13,15,17,19,-1,-1,-1,21,-1,-1,23,25,27,-1,-1,-1,-1,-1,-1,-1,-1,-1],"loss_changes":[4.760784E-1,0E0,4.8849735E-1,6.100515E-1,7.221843E-1,7.206559E-1,4.7439122E-1,5.704584E-1,3.965366E-2,1.0262892E0,1.7999508E0,0E0,0E0,0E0,4.2482686E-1,0E0,0E0,8.425427E-1,8.7194395E-1,7.936084E-1,0E0,0E0,0E0,0E0,0E0,0E0,0E0,0E0,0E0],"parents":[2147483647,0,0,2,2,3,3,4,4,5,5,6,6,7,7,8,8,9,9,10,10,14,14,17,17,18,18,19,19],"right_children":[2,-1,4,6,8,10,12,14,16,18,20,-1,-1,-1,22,-1,-1,24,26,28,-1,-1,-1,-1,-1,-1,-1,-1,-1],"split_conditions":[-1.2379405E0,-1.3078383E-1,1.2291023E0,1.0981112E0,-1.3756378E-1,5.714115E-1,4.8278508E-1,-2.9559806E-1,-3.657457E-3,-1.5837346E-1,7.553134E-1,1.6102288E-2,-2.1797322E-1,1.07909806E-1,6.558405E-1,4.968926E-2,2.0755097E-1,-8.6036026E-1,-8.090182E-1,1.1947925E0,1.293112E-1,3.3720475E-2,-1.3407142E-1,8.585022E-2,-2.6373371E-2,-9.9675976E-2,1.2283725E-1,-2.1466875E-1,3.5652157E-2],"split_indices":[1,0,5,5,0,4,2,6,3,4,7,0,0,0,2,0,0,6,6,1,0,0,0,0,0,0,0,0,0],"split_type":[0,0,0,0,0,0,0,0,0,0,0,0,0,0,0,0,0,0,0,0,0,0,0,0,0,0,0,0,0],"sum_hessian":[7.377686E1,1.5500404E0,7.222682E1,6.410809E1,8.118729E0,6.1952694E1,2.1554022E0,5.701846E0,2.4168823E0,5.4766907E1,7.1857886E0,1.0267498E0,1.1286523E0,1.8225114E0,3.8793347E0,1.0155374E0,1.4013449E0,4.456513E1,1.0201777E1,5.389633E0,1.7961556E0,1.9083041E0,1.9710306E0,6.115031E0,3.8450096E1,1.1050146E0,9.096763E0,4.261807E0,1.1278262E0],"tree_param":{"num_deleted":"0","num_feature":"8","num_nodes":"29","size_leaf_vector":"1"}},{"base_weights":[-8.429403E-3,-1.4867711E-1,5.211488E-3,1.2281493E-1,-1.28041115E-2,-1.7332485E-1,6.7081577E-3,-3.7610447E-1,2.816683E-2,9.37908E-4,-1.6136946E-1,-1.1366801E-1,7.944215E-2,-1.6909906E-1,1.7250035E-2,-1.5385303E-1,3.4073386E-2],"categories":[],"categories_nodes":[],"categories_segments":[],"categories_sizes":[],"default_left":[0,0,0,0,0,0,0,0,0,0,0,0,0,0,0,0,0],"id":24,"left_children":[1,-1,3,-1,5,-1,7,9,11,-1,-1,13,15,-1,-1,-1,-1],"loss_changes":[4.9148506E-1,0E0,5.3355557E-1,0E0,7.8025377E-1,0E0,5.7795835E-1,2.3089737E-1,4.9143538E-1,0E0,0E0,1.4207077E0,1.0551566E0,0E0,0E0,0E0,0E0],"parents":[2147483647,0,0,2,2,4,4,6,6,7,7,8,8,11,11,12,12],"right_children":[2,-1,4,-1,6,-1,8,10,12,-1,-1,14,16,-1,-1,-1,-1],"split_conditions":[-1.0445875E0,-1.4867711E-1,-9.962656E-1,1.2281493E-1,-9.560402E-1,-1.7332485E-1,-1.0122999E0,-6.1104006E-1,-6.135062E-1,9.37908E-4,-1.6136946E-1,-9.0675324E-2,-1.0680944E0,-1.6909906E-1,1.7250035E-2,-1.5385303E-1,3.4073386E-2],"split_indices":[6,0,6,0,6,0,5,2,7,0,0,3,2,0,0,0,0],"split_type":[0,0,0,0,0,0,0,0,0,0,0,0,0,0,0,0,0],"sum_hessian":[7.257103E1,1.0143414E0,7.155669E1,2.1264718E0,6.9430214E1,1.3628083E0,6.8067406E1,2.7357628E0,6.533164E1,1.1114033E0,1.6243595E0,1.7024004E1,4.830764E1,4.059271E0,1.2964734E1,1.8682507E0,4.643939E1],"tree_param":{"num_deleted":"0","num_feature":"8","num_nodes":"17","size_leaf_vector":"1"}},{"base_weights":[-1.5357248E-2,-7.347989E-2,8.276024E-2,2.3197205E-1,-1.224101E-1,-1.6895363E-2,5.5755675E-1,-7.742177E-2,4.9115998E-1,-6.0275763E-1,-4.2581733E-2,1.1526811E-1,-4.2815027E-1,1.9552149E-1,3.850922E-2,2.4298671E-1,-9.625658E-3,-2.261157E-1,-4.036979E-2,-2.1926355E-1,1.0230302E-2,2.26505E-1,5.4403218E-3,6.401442E-2,-6.9945174E-1,1.9229011E-1,-1.967449E-1,-2.0320246E-1,2.8026983E-1,-2.9465914E-1,2.670115E-2,8.8806525E-2,-1.3090642E-1,1.2511982E-1,-1.2787497E-1,1.1062453E-1,-1.3983065E-1,-1.3161588E-1,1.5577848E-1],"categories":[],"categories_nodes":[],"categories_segments":[],"categories_sizes":[],"default_left":[0,0,0,0,0,0,0,0,0,0,0,0,0,0,0,0,0,0,0,0,0,0,0,0,0,0,0,0,0,0,0,0,0,0,0,0,0,0,0],"id":25,"left_children":[1,3,5,7,9,11,13,-1,15,17,19,21,23,-1,-1,-1,-1,-1,-1,-1,25,-1,27,-1,29,31,33,35,37,-1,-1,-1,-1,-1,-1,-1,-1,-1,-1],"loss_changes":[4.2023957E-1,7.179421E-1,1.3099843E0,9.797221E-1,1.5242848E0,1.3369126E0,1.1027634E-1,0E0,8.1613255E-1,3.0032706E-1,1.3065164E0,1.3108821E0,1.1889182E0,0E0,0E0,0E0,0E0,0E0,0E0,0E0,1.3256553E0,0E0,1.0306361E0,0E0,1.0754194E0,1.3478357E0,2.5004811E0,1.7104585E0,1.5592136E0,0E0,0E0,0E0,0E0,0E0,0E0,0E0,0E0,0E0,0E0],"parents":[2147483647,0,0,1,1,2,2,3,3,4,4,5,5,6,6,8,8,9,9,10,10,11,11,12,12,20,20,22,22,24,24,25,25,26,26,27,27,28,28],"right_children":[2,4,6,8,10,12,14,-1,16,18,20,22,24,-1,-1,-1,-1,-1,-1,-1,26,-1,28,-1,30,32,34,36,38,-1,-1,-1,-1,-1,-1,-1,-1,-1,-1],"split_conditions":[1.815807E-1,-8.4488505E-1,9.725986E-1,6.5192296E-3,-7.700735E-1,4.8866203E-1,1.0694956E0,-7.742177E-2,1.2719086E-1,2.6598898E-1,-7.144001E-1,2.5435957E-1,-1.0790026E-1,1.9552149E-1,3.850922E-2,2.4298671E-1,-9.625658E-3,-2.261157E-1,-4.036979E-2,-2.1926355E-1,9.384658E-2,2.26505E-1,1.0594792E0,6.401442E-2,3.4057322E-1,-9.929033E-2,-2.358558E-1,-7.011984E-1,-7.700735E-1,-2.9465914E-1,2.670115E-2,8.8806525E-2,-1.3090642E-1,1.2511982E-1,-1.2787497E-1,1.1062453E-1,-1.3983065E-1,-1.3161588E-1,1.5577848E-1],"split_indices":[6,0,0,5,7,7,6,0,3,1,4,6,5,0,0,0,0,0,0,0,5,0,6,0,3,6,2,7,7,0,0,0,0,0,0,0,0,0,0],"split_type":[0,0,0,0,0,0,0,0,0,0,0,0,0,0,0,0,0,0,0,0,0,0,0,0,0,0,0,0,0,0,0,0,0,0,0,0,0,0,0],"sum_hessian":[7.162308E1,4.513638E1,2.6486698E1,5.7155557E0,3.9420826E1,2.2688911E1,3.7977865E0,1.9787158E0,3.7368398E0,4.684191E0,3.4736633E1,1.7715471E1,4.97344E0,2.6891594E0,1.108627E0,1.9815829E0,1.7552568E0,3.080938E0,1.6032534E0,1.5604265E0,3.317621E1,1.7349298E0,1.5980542E1,1.541598E0,3.431842E0,1.7688221E1,1.5487986E1,9.23228E0,6.7482615E0,2.3451374E0,1.0867047E0,1.5637084E1,2.0511374E0,3.992583E0,1.1495402E1,2.7805154E0,6.451765E0,1.4750301E0,5.2732315E0],"tree_param":{"num_deleted":"0","num_feature":"8","num_nodes":"39","size_leaf_vector":"1"}},{"base_weights":[-1.257168E-2,-3.5126284E-2,2.5166753E-1,-5.282502E-2,3.4539837E-1,-2.4373295E-2,4.1587645E-1,-3.0550122E-1,-2.5245892E-2,1.4707458E-1,7.734462E-3,1.6150409E-1,8.169131E-3,-1.977294E-1,-6.1811984E-2,-1.0148405E-1,1.07110955E-1,-3.53465E-1,9.1306396E-2,-1.4540609E-2,-4.130404E-1,-3.8979274E-1,2.1403858E-1,-1.8636912E-1,3.0481156E-2,-3.1121472E-2,1.6963895E-1,-1.7349596E-1,9.84777E-2,-4.258644E-3,-1.5965635E-1,1.7737775E-1,2.6729925E-2],"categories":[],"categories_nodes":[],"categories_segments":[],"categories_sizes":[],"default_left":[0,0,0,0,0,0,0,0,0,0,0,0,0,0,0,0,0,0,0,0,0,0,0,0,0,0,0,0,0,0,0,0,0],"id":26,"left_children":[1,3,5,7,9,-1,11,13,15,-1,-1,-1,-1,-1,17,19,21,23,-1,25,27,29,31,-1,-1,-1,-1,-1,-1,-1,-1,-1,-1],"loss_changes":[4.2940328E-1,4.6203172E-1,3.438654E-1,4.371143E-1,1.2908727E-1,0E0,1.739192E-1,4.9277198E-1,6.0260135E-1,0E0,0E0,0E0,0E0,0E0,6.168693E-1,1.0158131E0,1.2480513E0,4.4295916E-1,0E0,1.6380671E0,1.1937424E0,2.1899712E-1,8.278459E-1,0E0,0E0,0E0,0E0,0E0,0E0,0E0,0E0,0E0,0E0],"parents":[2147483647,0,0,1,1,2,2,3,3,4,4,6,6,7,7,8,8,14,14,15,15,16,16,17,17,19,19,20,20,21,21,22,22],"right_children":[2,4,6,8,10,-1,12,14,16,-1,-1,-1,-1,-1,18,20,22,24,-1,26,28,30,32,-1,-1,-1,-1,-1,-1,-1,-1,-1,-1],"split_conditions":[1.4812205E0,1.8986119E0,-1.9486152E-1,-9.955417E-1,2.933251E-1,-2.4373295E-2,1.2915531E0,-2.606902E-1,1.2721857E-1,1.4707458E-1,7.734462E-3,1.6150409E-1,8.169131E-3,-1.977294E-1,-5.416505E-1,-2.6841697E-1,-1.1373066E0,3.4057322E-1,9.1306396E-2,-3.9239174E-1,5.7489264E-1,-4.489461E-1,3.5432827E-1,-1.8636912E-1,3.0481156E-2,-3.1121472E-2,1.6963895E-1,-1.7349596E-1,9.84777E-2,-4.258644E-3,-1.5965635E-1,1.7737775E-1,2.6729925E-2],"split_indices":[1,5,2,2,6,0,2,1,6,0,0,0,0,0,0,6,0,3,0,6,1,1,6,0,0,0,0,0,0,0,0,0,0],"split_type":[0,0,0,0,0,0,0,0,0,0,0,0,0,0,0,0,0,0,0,0,0,0,0,0,0,0,0,0,0,0,0,0,0],"sum_hessian":[6.956653E1,6.4894424E1,4.6721115E0,6.283314E1,2.0612788E0,1.7101821E0,2.9619293E0,5.191555E0,5.7641586E1,1.0510706E0,1.0102084E0,1.9593207E0,1.0026085E0,1.4226308E0,3.768924E0,3.6722507E1,2.091908E1,2.1172307E0,1.6516935E0,2.9528816E1,7.1936903E0,3.2359407E0,1.768314E1,1.1030526E0,1.0141779E0,2.6304623E1,3.2241936E0,6.0619745E0,1.1317159E0,1.1918566E0,2.044084E0,3.470991E0,1.4212149E1],"tree_param":{"num_deleted":"0","num_feature":"8","num_nodes":"33","size_leaf_vector":"1"}},{"base_weights":[-6.7804437E-3,-2.4998553E-1,1.847309E-2,-6.544698E-1,2.7404037E-1,1.4459157E-1,4.7789035E-5,-5.3800702E-2,-2.2614269E-1,-3.30444E-2,1.42791E-1,-8.339132E-2,6.7818545E-2,3.3295062E-1,-1.4988612E-1,2.3967831E-1,3.7017488E-3,1.6089696E-1,-2.1084562E-2,7.526997E-4,-3.628305E-1,-2.771722E-1,6.36094E-2,4.463743E-2,-1.3846733E-1,-1.566358E-1,6.664815E-2,5.1718187E-2,-1.5635669E-1,1.3783908E-1,-6.2283473E-3],"categories":[],"categories_nodes":[],"categories_segments":[],"categories_sizes":[],"default_left":[0,0,0,0,0,0,0,0,0,0,0,0,0,0,0,0,0,0,0,0,0,0,0,0,0,0,0,0,0,0,0],"id":27,"left_children":[1,3,5,7,9,-1,11,-1,-1,-1,-1,13,15,17,19,-1,21,-1,-1,23,25,27,29,-1,-1,-1,-1,-1,-1,-1,-1],"loss_changes":[4.2989323E-1,1.5745573E0,5.4364437E-1,5.4087877E-2,3.2956508E-1,0E0,3.5753068E-1,0E0,0E0,0E0,0E0,8.344269E-1,1.6325032E0,3.8318977E-1,8.062204E-1,0E0,5.742592E-1,0E0,0E0,1.1440793E0,1.0861858E0,7.4828285E-1,9.473149E-1,0E0,0E0,0E0,0E0,0E0,0E0,0E0,0E0],"parents":[2147483647,0,0,1,1,2,2,3,3,4,4,6,6,11,11,12,12,13,13,14,14,16,16,19,19,20,20,21,21,22,22],"right_children":[2,4,6,8,10,-1,12,-1,-1,-1,-1,14,16,18,20,-1,22,-1,-1,24,26,28,30,-1,-1,-1,-1,-1,-1,-1,-1],"split_conditions":[-8.763181E-1,1.2719086E-1,-8.4344333E-1,-4.5922667E-1,-4.7113845E-1,1.4459157E-1,-3.9239174E-1,-5.3800702E-2,-2.2614269E-1,-3.30444E-2,1.42791E-1,-9.0626335E-1,-2.9559806E-1,2.436398E-2,1.8117394E-1,2.3967831E-1,-1.1373066E0,1.6089696E-1,-2.1084562E-2,-5.6740874E-1,1.0253384E0,-3.628757E-1,-3.6423883E-1,4.463743E-2,-1.3846733E-1,-1.566358E-1,6.664815E-2,5.1718187E-2,-1.5635669E-1,1.3783908E-1,-6.2283473E-3],"split_indices":[1,3,1,5,4,0,6,0,0,0,0,0,6,2,5,0,0,0,0,6,5,2,3,0,0,0,0,0,0,0,0],"split_type":[0,0,0,0,0,0,0,0,0,0,0,0,0,0,0,0,0,0,0,0,0,0,0,0,0,0,0,0,0,0,0],"sum_hessian":[6.82429E1,5.582396E0,6.2660503E1,3.0100653E0,2.572331E0,1.4338194E0,6.1226685E1,1.005603E0,2.0044625E0,1.042813E0,1.529518E0,2.7337887E1,3.3888798E1,3.2130349E0,2.4124851E1,1.8083295E0,3.2080467E1,1.9164189E0,1.296616E0,1.47131195E1,9.411732E0,5.002033E0,2.7078436E1,1.1658159E1,3.0549607E0,7.48193E0,1.9298016E0,1.863083E0,3.1389499E0,3.9763248E0,2.3102112E1],"tree_param":{"num_deleted":"0","num_feature":"8","num_nodes":"31","size_leaf_vector":"1"}},{"base_weights":[-2.2013248E-3,-1.4509207E-1,3.779463E-2,-2.395099E-1,1.7266428E-1,-8.547758E-2,1.1224902E-1,-5.023547E-1,-7.210302E-2,-3.178534E-2,1.22496605E-1,4.1897032E-2,-5.1708937E-1,2.0759185E-1,6.5814644E-2,-1.3552002E-2,-2.2941764E-1,3.1187534E-1,-2.8936777E-1,-3.7635675E-1,1.6709684E-1,3.0322522E-2,-2.2364299E-1,3.4787363E-4,4.9557728E-1,-7.7901115E-3,1.3996755E-1,4.9630664E-2,-4.9121398E-1,-1.846346E-1,1.9979086E-2,-4.7145647E-1,3.3025056E-1,1.4718565E-1,-4.8774224E-2,1.8710579E-1,3.8662583E-2,-1.9251685E-1,-6.870615E-3,-2.9409211E-2,-1.8959041E-1,1.9813763E-1,8.8050235E-3,-4.499548E-2,5.156718E-2],"categories":[],"categories_nodes":[],"categories_segments":[],"categories_sizes":[],"default_left":[0,0,0,0,0,0,0,0,0,0,0,0,0,0,0,0,0,0,0,0,0,0,0,0,0,0,0,0,0,0,0,0,0,0,0,0,0,0,0,0,0,0,0,0,0],"id":28,"left_children":[1,3,5,7,9,11,13,15,17,-1,-1,19,21,-1,23,-1,-1,25,27,29,31,-1,-1,33,35,-1,-1,-1,37,-1,-1,39,41,-1,43,-1,-1,-1,-1,-1,-1,-1,-1,-1,-1],"loss_changes":[3.9505696E-1,4.9480578E-1,5.056934E-1,4.949172E-1,3.0873752E-1,1.1718327E0,8.732332E-1,5.08718E-1,8.028405E-1,0E0,0E0,9.5723176E-1,7.589735E-1,0E0,9.199883E-1,0E0,0E0,1.9856918E-1,6.2966245E-1,4.9025214E-1,1.597255E0,0E0,0E0,7.315469E-1,1.2269437E-1,0E0,0E0,0E0,2.9469585E-1,0E0,0E0,1.3152188E-1,1.1340845E0,0E0,6.4254737E-1,0E0,0E0,0E0,0E0,0E0,0E0,0E0,0E0,0E0,0E0],"parents":[2147483647,0,0,1,1,2,2,3,3,4,4,5,5,6,6,7,7,8,8,11,11,12,12,14,14,17,17,18,18,19,19,20,20,23,23,24,24,28,28,31,31,32,32,34,34],"right_children":[2,4,6,8,10,12,14,16,18,-1,-1,20,22,-1,24,-1,-1,26,28,30,32,-1,-1,34,36,-1,-1,-1,38,-1,-1,40,42,-1,44,-1,-1,-1,-1,-1,-1,-1,-1,-1,-1],"split_conditions":[-4.0219247E-1,7.827383E-1,-1.9486152E-1,-6.580123E-1,4.9106857E-1,-1.9743282E-1,-3.1989932E-2,-1.0385739E-1,-2.080146E-1,-3.178534E-2,1.22496605E-1,-7.9919964E-2,-4.6500742E-2,2.0759185E-1,1.1235744E0,-1.3552002E-2,-2.2941764E-1,-9.0675324E-2,-4.489461E-1,2.5801793E-2,-2.1613798E-1,3.0322522E-2,-2.2364299E-1,-3.427902E-1,9.8042184E-1,-7.7901115E-3,1.3996755E-1,4.9630664E-2,-5.46554E-1,-1.846346E-1,1.9979086E-2,-5.416505E-1,3.2671952E-1,1.4718565E-1,7.2997427E-1,1.8710579E-1,3.8662583E-2,-1.9251685E-1,-6.870615E-3,-2.9409211E-2,-1.8959041E-1,1.9813763E-1,8.8050235E-3,-4.499548E-2,5.156718E-2],"split_indices":[5,1,2,6,7,2,2,2,6,0,0,5,5,0,1,0,0,3,1,1,3,0,0,5,7,0,0,0,5,0,0,0,5,0,7,0,0,0,0,0,0,0,0,0,0],"split_type":[0,0,0,0,0,0,0,0,0,0,0,0,0,0,0,0,0,0,0,0,0,0,0,0,0,0,0,0,0,0,0,0,0,0,0,0,0,0,0,0,0,0,0,0,0],"sum_hessian":[6.716618E1,1.4114091E1,5.3052094E1,1.1070777E1,3.0433135E0,1.9921131E1,3.3130962E1,3.5290427E0,7.541734E0,1.6467649E0,1.3965485E0,1.6078941E1,3.8421896E0,1.4259608E0,3.1705E1,1.7142078E0,1.8148351E0,2.567917E0,4.9738173E0,3.2420864E0,1.2836856E1,1.1869555E0,2.655234E0,2.838227E1,3.3227293E0,1.067822E0,1.5000951E0,1.5843413E0,3.389476E0,1.8526608E0,1.3894255E0,2.2278438E0,1.0609013E1,1.7662444E0,2.6616026E1,1.9431019E0,1.3796275E0,2.284864E0,1.1046121E0,1.1539499E0,1.073894E0,4.4884486E0,6.1205635E0,1.8466457E1,8.1495695E0],"tree_param":{"num_deleted":"0","num_feature":"8","num_nodes":"45","size_leaf_vector":"1"}},{"base_weights":[-6.482392E-4,-3.0938902E-1,1.7292218E-2,-1.5255323E-1,-8.922952E-3,-1.756338E-5,3.5690546E-1,-4.1034606E-1,2.1720778E-2,1.812622E-1,-1.7919898E-2,-1.7186607E-1,-1.0962546E-2,-1.1668999E-1,3.7134405E-2,2.734128E-1,1.4175146E-3,-1.3683656E-1,1.4684193E-1,1.00992694E-1,-1.3491479E-2],"categories":[],"categories_nodes":[],"categories_segments":[],"categories_sizes":[],"default_left":[0,0,0,0,0,0,0,0,0,0,0,0,0,0,0,0,0,0,0,0,0],"id":29,"left_children":[1,3,5,-1,-1,7,9,11,13,-1,-1,-1,-1,-1,15,17,19,-1,-1,-1,-1],"loss_changes":[3.7342924E-1,1.9103515E-1,3.7477213E-1,0E0,0E0,5.589006E-1,3.5465348E-1,1.7060524E-1,3.9112964E-1,0E0,0E0,0E0,0E0,0E0,4.9133155E-1,1.4284525E0,8.17879E-1,0E0,0E0,0E0,0E0],"parents":[2147483647,0,0,1,1,2,2,5,5,6,6,7,7,8,8,14,14,15,15,16,16],"right_children":[2,4,6,-1,-1,8,10,12,14,-1,-1,-1,-1,-1,16,18,20,-1,-1,-1,-1],"split_conditions":[-1.0122999E0,-5.416505E-1,2.257577E0,-1.5255323E-1,-8.922952E-3,-1.1064415E0,2.2483762E-1,3.5432827E-1,-1.378189E0,1.812622E-1,-1.7919898E-2,-1.7186607E-1,-1.0962546E-2,-1.1668999E-1,-3.537732E-1,-6.929037E-1,-7.862862E-1,-1.3683656E-1,1.4684193E-1,1.00992694E-1,-1.3491479E-2],"split_indices":[5,0,0,0,0,1,5,6,3,0,0,0,0,0,3,2,7,0,0,0,0],"split_type":[0,0,0,0,0,0,0,0,0,0,0,0,0,0,0,0,0,0,0,0,0],"sum_hessian":[6.545287E1,2.7023468E0,6.2750526E1,1.1003985E0,1.6019483E0,6.0658752E1,2.091774E0,2.152475E0,5.850628E1,1.0301297E0,1.0616442E0,1.1289775E0,1.0234975E0,1.2397084E0,5.726657E1,6.646027E0,5.0620544E1,1.2646862E0,5.381341E0,5.3928556E0,4.5227688E1],"tree_param":{"num_deleted":"0","num_feature":"8","num_nodes":"21","size_leaf_vector":"1"}},{"base_weights":[-3.6985658E-3,-2.3976119E-1,1.8791204E-2,-1.7269693E-1,8.525999E-2,4.1165492E-1,-6.4548184E-3,-4.2120606E-2,9.8211974E-2,1.9419663E-1,-1.1196504E-2,-5.425623E-2,1.8796353E-1,-7.0538E-3,-4.811753E-1,3.6931556E-1,-1.801767E-1,-3.5490513E-2,1.7209601E-1,-2.2524425E-1,3.5659613E-3,5.0210416E-1,-8.611892E-2,-1.9933732E-1,8.851606E-2,1.9636299E-3,-1.6594851E-1,5.3087133E-3,2.218771E-1],"categories":[],"categories_nodes":[],"categories_segments":[],"categories_sizes":[],"default_left":[0,0,0,0,0,0,0,0,0,0,0,0,0,0,0,0,0,0,0,0,0,0,0,0,0,0,0,0,0],"id":30,"left_children":[1,3,5,-1,7,9,11,-1,-1,-1,-1,13,15,17,19,21,23,25,-1,-1,-1,27,-1,-1,-1,-1,-1,-1,-1],"loss_changes":[3.5442182E-1,6.8291366E-1,6.0870516E-1,0E0,2.5476214E-1,4.1618156E-1,5.529309E-1,0E0,0E0,0E0,0E0,9.568386E-1,8.509368E-1,7.456496E-1,6.376498E-1,8.587811E-1,1.2431355E0,9.3525845E-1,0E0,0E0,0E0,8.132907E-1,0E0,0E0,0E0,0E0,0E0,0E0,0E0],"parents":[2147483647,0,0,1,1,2,2,4,4,5,5,6,6,11,11,12,12,13,13,14,14,15,15,16,16,17,17,21,21],"right_children":[2,4,6,-1,8,10,12,-1,-1,-1,-1,14,16,18,20,22,24,26,-1,-1,-1,28,-1,-1,-1,-1,-1,-1,-1],"split_conditions":[-9.5297486E-1,-2.1707496E-1,-7.862862E-1,-1.7269693E-1,-8.442674E-1,-2.606902E-1,8.037251E-1,-4.2120606E-2,9.8211974E-2,1.9419663E-1,-1.1196504E-2,6.0741746E-1,4.1188502E-1,1.9212114E0,-1.7066707E-1,1.4372512E0,9.8042184E-1,2.191785E0,1.7209601E-1,-2.2524425E-1,3.5659613E-3,-4.3858227E-1,-8.611892E-2,-1.9933732E-1,8.851606E-2,1.9636299E-3,-1.6594851E-1,5.3087133E-3,2.218771E-1],"split_indices":[7,6,7,0,0,1,6,0,0,0,0,6,7,1,4,3,7,7,0,0,0,1,0,0,0,0,0,0,0],"split_type":[0,0,0,0,0,0,0,0,0,0,0,0,0,0,0,0,0,0,0,0,0,0,0,0,0,0,0,0,0],"sum_hessian":[6.491012E1,4.8057656E0,6.0104347E1,1.9841244E0,2.8216412E0,2.7050002E0,5.739935E1,1.677874E0,1.1437671E0,1.4841826E0,1.2208177E0,4.66504E1,1.0748949E1,4.2921314E1,3.729085E0,7.1992736E0,3.5496757E0,4.1812668E1,1.1086452E0,2.0727885E0,1.6562965E0,6.183384E0,1.0158899E0,1.560884E0,1.9887917E0,3.9585594E1,2.2270744E0,2.3876748E0,3.795709E0],"tree_param":{"num_deleted":"0","num_feature":"8","num_nodes":"29","size_leaf_vector":"1"}},{"base_weights":[-4.076689E-3,-1.9467777E-2,3.121516E-1,-3.0788854E-1,8.286391E-3,1.545866E-1,-1.3642051E-2,-2.1424732E-1,1.0613077E-1,5.7774976E-2,-1.7835002E-1,-1.0140679E-1,1.3250285E-1,9.334808E-2,-3.4485525E-1,-3.182658E-1,2.1186341E-1,-8.273224E-2,1.8454383E-1,-1.9013055E-1,1.3790719E-2,-4.7085166E-1,1.6222553E-1,-1.1468139E-1,1.9270943E-1,1.5880471E-2,-1.7928433E-1,8.8008754E-2,-6.9566253E-3,-1.9871347E-1,-9.44712E-3,6.731338E-2,6.249331E-3],"categories":[],"categories_nodes":[],"categories_segments":[],"categories_sizes":[],"default_left":[0,0,0,0,0,0,0,0,0,0,0,0,0,0,0,0,0,0,0,0,0,0,0,0,0,0,0,0,0,0,0,0,0],"id":31,"left_children":[1,3,5,7,9,-1,-1,-1,11,13,15,-1,-1,17,19,21,23,25,27,-1,-1,29,31,-1,-1,-1,-1,-1,-1,-1,-1,-1,-1],"loss_changes":[3.2073915E-1,5.035897E-1,2.4567905E-1,1.0043716E0,5.466701E-1,0E0,0E0,0E0,6.8653625E-1,7.0042896E-1,7.452826E-1,0E0,0E0,7.1626973E-1,4.808463E-1,7.757041E-1,1.2372441E0,1.1203383E0,6.6391855E-1,0E0,0E0,6.098987E-1,2.2065409E-2,0E0,0E0,0E0,0E0,0E0,0E0,0E0,0E0,0E0,0E0],"parents":[2147483647,0,0,1,1,2,2,3,3,4,4,8,8,9,9,10,10,13,13,14,14,15,15,16,16,17,17,18,18,21,21,22,22],"right_children":[2,4,6,8,10,-1,-1,-1,12,14,16,-1,-1,18,20,22,24,26,28,-1,-1,30,32,-1,-1,-1,-1,-1,-1,-1,-1,-1,-1],"split_conditions":[2.257577E0,-8.763181E-1,2.2483762E-1,3.6615007E-2,2.0072706E-1,1.545866E-1,-1.3642051E-2,-2.1424732E-1,1.2719086E-1,1.8278131E0,6.558405E-1,-1.0140679E-1,1.3250285E-1,-1.6359061E-1,4.9106857E-1,1.157079E0,-4.4138423E-1,5.623513E-2,6.323653E-1,-1.9013055E-1,1.3790719E-2,5.4181916E-1,5.49242E-1,-1.1468139E-1,1.9270943E-1,1.5880471E-2,-1.7928433E-1,8.8008754E-2,-6.9566253E-3,-1.9871347E-1,-9.44712E-3,6.731338E-2,6.249331E-3],"split_indices":[0,1,5,6,4,0,0,0,3,0,2,0,0,5,7,6,7,3,5,0,0,3,3,0,0,0,0,0,0,0,0,0,0],"split_type":[0,0,0,0,0,0,0,0,0,0,0,0,0,0,0,0,0,0,0,0,0,0,0,0,0,0,0,0,0,0,0,0,0],"sum_hessian":[6.3650906E1,6.159163E1,2.059277E0,4.5205674E0,5.7071064E1,1.0321411E0,1.027136E0,1.9157453E0,2.6048224E0,4.565548E1,1.1415584E1,1.1178148E0,1.4870076E0,4.2654987E1,3.0004904E0,8.538412E0,2.8771713E0,1.4585732E1,2.8069256E1,1.3677639E0,1.6327266E0,6.4956894E0,2.042723E0,1.2559154E0,1.6212559E0,1.2254076E1,2.3316562E0,1.8149569E1,9.919686E0,4.1702147E0,2.3254747E0,1.0112965E0,1.0314264E0],"tree_param":{"num_deleted":"0","num_feature":"8","num_nodes":"33","size_leaf_vector":"1"}},{"base_weights":[-9.049488E-3,-1.0978148E-1,3.450651E-2,-3.470712E-1,7.807455E-2,1.8526052E-1,5.9450204E-3,6.765106E-2,-4.7675976E-1,-1.1877336E-1,2.2151797E-1,-2.1990179E-1,6.0227953E-2,-7.047624E-1,-1.1977004E-2,1.877629E-1,-5.8791444E-2,1.3449399E-1,-4.3585572E-1,2.0031056E-1,8.025996E-3,-5.782747E-2,-2.3915075E-1,7.4848875E-2,-8.774309E-2,1.6589497E-1,-3.120679E-1,-6.58102E-2,-6.4124036E-1,-1.0571228E-1,1.5512308E-1,-9.683358E-2,1.5944976E-1,-1.7231408E-1,4.1642256E-2,-8.544292E-2,7.298626E-2,-2.4824823E-1,-4.2966563E-2,-1.988256E-1,-4.1913353E-3,-5.5938106E-2,8.336765E-2],"categories":[],"categories_nodes":[],"categories_segments":[],"categories_sizes":[],"default_left":[0,0,0,0,0,0,0,0,0,0,0,0,0,0,0,0,0,0,0,0,0,0,0,0,0,0,0,0,0,0,0,0,0,0,0,0,0,0,0,0,0,0,0],"id":32,"left_children":[1,3,5,7,9,-1,11,-1,13,-1,15,17,19,21,23,-1,25,-1,27,-1,29,-1,-1,-1,-1,31,33,35,37,39,41,-1,-1,-1,-1,-1,-1,-1,-1,-1,-1,-1,-1],"loss_changes":[2.8187647E-1,8.906402E-1,7.4584204E-1,7.5677276E-1,8.7834024E-1,0E0,5.5165875E-1,0E0,7.8104126E-1,0E0,1.1213222E0,1.4544895E0,1.1423506E0,8.199406E-2,3.2740963E-1,0E0,4.2537537E-1,0E0,4.9750412E-1,0E0,5.909359E-1,0E0,0E0,0E0,0E0,9.0975004E-1,4.857834E-1,3.1629694E-1,2.9446602E-1,1.0108147E0,6.967741E-1,0E0,0E0,0E0,0E0,0E0,0E0,0E0,0E0,0E0,0E0,0E0,0E0],"parents":[2147483647,0,0,1,1,2,2,3,3,4,4,6,6,8,8,10,10,11,11,12,12,13,13,14,14,16,16,18,18,20,20,25,25,26,26,27,27,28,28,29,29,30,30],"right_children":[2,4,6,8,10,-1,12,-1,14,-1,16,18,20,22,24,-1,26,-1,28,-1,30,-1,-1,-1,-1,32,34,36,38,40,42,-1,-1,-1,-1,-1,-1,-1,-1,-1,-1,-1,-1],"split_conditions":[-3.5589164E-1,-6.187669E-2,-1.9743282E-1,-1.036717E0,-2.1613798E-1,1.8526052E-1,-7.552513E-1,6.765106E-2,1.8085338E-1,-1.1877336E-1,3.2671952E-1,-6.9748896E-1,-7.1237445E-1,-2.5562258E-2,-1.01292156E-1,1.877629E-1,1.1300703E-2,1.3449399E-1,-8.6036026E-1,2.0031056E-1,2.6598898E-1,-5.782747E-2,-2.3915075E-1,7.4848875E-2,-8.774309E-2,-8.442674E-1,5.595925E-1,4.8278508E-1,-8.090182E-1,-1.9486152E-1,-8.442674E-1,-9.683358E-2,1.5944976E-1,-1.7231408E-1,4.1642256E-2,-8.544292E-2,7.298626E-2,-2.4824823E-1,-4.2966563E-2,-1.988256E-1,-4.1913353E-3,-5.5938106E-2,8.336765E-2],"split_indices":[2,5,2,3,3,0,6,0,1,0,5,7,6,3,0,0,1,0,6,0,1,0,0,0,0,0,5,2,6,2,0,0,0,0,0,0,0,0,0,0,0,0,0],"split_type":[0,0,0,0,0,0,0,0,0,0,0,0,0,0,0,0,0,0,0,0,0,0,0,0,0,0,0,0,0,0,0,0,0,0,0,0,0,0,0,0,0,0,0],"sum_hessian":[6.23822E1,1.8372238E1,4.4009956E1,7.743511E0,1.0628728E1,1.0922619E0,4.2917698E1,1.2935745E0,6.4499364E0,2.0604033E0,8.568324E0,7.725276E0,3.519242E1,3.9807992E0,2.4691374E0,3.0032306E0,5.5650935E0,1.6240612E0,6.101215E0,1.8518387E0,3.334058E1,1.0804198E0,2.9003794E0,1.3351151E0,1.1340224E0,3.1318092E0,2.4332843E0,2.6489587E0,3.4522562E0,1.8960955E1,1.4379627E1,1.3904473E0,1.7413621E0,1.3651431E0,1.0681412E0,1.596439E0,1.0525197E0,2.0310805E0,1.4211758E0,1.8010535E0,1.71599E1,3.664635E0,1.0714993E1],"tree_param":{"num_deleted":"0","num_feature":"8","num_nodes":"43","size_leaf_vector":"1"}},{"base_weights":[-9.943367E-3,3.2178492E-3,-9.957736E-2,-2.1930097E-2,1.8791066E-1,-4.0805332E-2,1.4181148E-1,-1.8956093E-2,-1.3662238E-1,-3.8772985E-2,1.1243622E-1,-1.823254E-1,-3.8845555E-3],"categories":[],"categories_nodes":[],"categories_segments":[],"categories_sizes":[],"default_left":[0,0,0,0,0,0,0,0,0,0,0,0,0],"id":33,"left_children":[1,3,-1,5,-1,7,-1,9,-1,11,-1,-1,-1],"loss_changes":[2.622912E-1,9.5732975E-1,0E0,5.6867075E-1,0E0,5.131597E-1,0E0,4.496205E-1,0E0,7.8551114E-1,0E0,0E0,0E0],"parents":[2147483647,0,0,1,1,3,3,5,5,7,7,9,9],"right_children":[2,4,-1,6,-1,8,-1,10,-1,12,-1,-1,-1],"split_conditions":[2.7906256E0,2.1446579E0,-9.957736E-2,1.9212114E0,1.8791066E-1,1.4983524E0,1.4181148E-1,2.257577E0,-1.3662238E-1,-1.1064415E0,1.1243622E-1,-1.823254E-1,-3.8845555E-3],"split_indices":[6,6,0,1,0,6,0,0,0,1,0,0,0],"split_type":[0,0,0,0,0,0,0,0,0,0,0,0,0],"sum_hessian":[6.06432E1,5.9212837E1,1.430362E0,5.784331E1,1.369523E0,5.660093E1,1.242383E0,5.47608E1,1.8401308E0,5.2995113E1,1.7656875E0,1.3225287E0,5.1672585E1],"tree_param":{"num_deleted":"0","num_feature":"8","num_nodes":"13","size_leaf_vector":"1"}},{"base_weights":[-6.634618E-3,1.3682469E-2,-2.3665188E-1,-1.3545972E-2,4.255258E-1,6.677737E-2,-5.1942503E-1,1.7323982E-2,-2.8350735E-1,1.2737088E-2,1.7913008E-1,-2.0834942E-1,-4.1418374E-2,-7.4650333E-3,1.5200078E-1,7.196181E-2,-5.897607E-1,-1.5292494E-1,8.144665E-2,-2.0624022E-1,-5.001337E-2,2.6611762E-2,-8.686115E-2,6.690609E-2,-2.8623546E-2],"categories":[],"categories_nodes":[],"categories_segments":[],"categories_sizes":[],"default_left":[0,0,0,0,0,0,0,0,0,0,0,0,0,0,0,0,0,0,0,0,0,0,0,0,0],"id":34,"left_children":[1,3,5,7,9,-1,11,13,15,-1,-1,-1,-1,17,-1,-1,19,21,23,-1,-1,-1,-1,-1,-1],"loss_changes":[2.8864425E-1,6.456343E-1,7.663876E-1,4.5902535E-1,2.0924664E-1,0E0,1.3122308E-1,6.083858E-1,1.0469663E0,0E0,0E0,0E0,0E0,6.387321E-1,0E0,0E0,4.465401E-2,6.43556E-1,7.901235E-1,0E0,0E0,0E0,0E0,0E0,0E0],"parents":[2147483647,0,0,1,1,2,2,3,3,4,4,6,6,7,7,8,8,13,13,16,16,17,17,18,18],"right_children":[2,4,6,8,10,-1,12,14,16,-1,-1,-1,-1,18,-1,-1,20,22,24,-1,-1,-1,-1,-1,-1],"split_conditions":[2.0216098E0,1.5894698E0,4.7554065E-2,1.2915531E0,-3.8319656E-1,6.677737E-2,5.7489264E-1,1.8695028E0,-7.6176447E-1,1.2737088E-2,1.7913008E-1,-2.0834942E-1,-4.1418374E-2,-5.416505E-1,1.5200078E-1,7.196181E-2,4.1188502E-1,-4.0529397E-1,9.384658E-2,-2.0624022E-1,-5.001337E-2,2.6611762E-2,-8.686115E-2,6.690609E-2,-2.8623546E-2],"split_indices":[7,7,0,2,1,0,1,5,0,0,0,0,0,0,0,0,7,6,5,0,0,0,0,0,0],"split_type":[0,0,0,0,0,0,0,0,0,0,0,0,0,0,0,0,0,0,0,0,0,0,0,0,0],"sum_hessian":[6.007193E1,5.6060688E1,4.011243E0,5.3491295E1,2.5693924E0,1.6097406E0,2.4015021E0,4.8842056E1,4.649238E0,1.180711E0,1.3886814E0,1.083163E0,1.3183391E0,4.74244E1,1.4176574E0,1.7962456E0,2.8529925E0,1.771789E1,2.970651E1,1.8099432E0,1.0430493E0,6.5259285E0,1.1191962E1,1.6354149E1,1.3352362E1],"tree_param":{"num_deleted":"0","num_feature":"8","num_nodes":"25","size_leaf_vector":"1"}},{"base_weights":[-5.4776575E-3,-2.8132668E-1,1.072782E-2,-2.041798E-2,-1.0377974E-1,-1.5183832E-1,4.134921E-2,4.103441E-2,-4.270432E-1,3.0453494E-1,1.2838378E-2,-1.882901E-1,1.7767459E-1,-1.9484735E-1,-1.9108588E-2,-6.2256712E-2,5.094947E-1,-4.9005955E-2,1.7809968E-1,1.7562321E-1,-1.604473E-1,2.0201035E-1,5.6480847E-2,-2.2214344E-1,1.0358966E-1,2.8066233E-1,-8.434585E-2,-5.3072635E-2,1.4655298E-1,1.0548169E-1,-1.02740526E-1,4.741172E-2,-9.272285E-2,2.4270939E-2,1.8180592E-1],"categories":[],"categories_nodes":[],"categories_segments":[],"categories_sizes":[],"default_left":[0,0,0,0,0,0,0,0,0,0,0,0,0,0,0,0,0,0,0,0,0,0,0,0,0,0,0,0,0,0,0,0,0,0,0],"id":35,"left_children":[1,3,5,-1,-1,7,9,11,13,15,17,19,-1,-1,-1,-1,21,23,25,27,-1,-1,-1,29,31,33,-1,-1,-1,-1,-1,-1,-1,-1,-1],"loss_changes":[2.7247652E-1,2.3046046E-2,2.944874E-1,0E0,0E0,5.1599246E-1,3.6756226E-1,9.247836E-1,2.7847916E-1,6.089439E-1,4.759142E-1,7.625867E-1,0E0,0E0,0E0,0E0,6.870878E-2,9.2254156E-1,6.7538905E-1,4.5473018E-1,0E0,0E0,0E0,1.2435032E0,4.7080335E-1,6.562878E-1,0E0,0E0,0E0,0E0,0E0,0E0,0E0,0E0,0E0],"parents":[2147483647,0,0,1,1,2,2,5,5,6,6,7,7,8,8,9,9,10,10,11,11,16,16,17,17,18,18,19,19,23,23,24,24,25,25],"right_children":[2,4,6,-1,-1,8,10,12,14,16,18,20,-1,-1,-1,-1,22,24,26,28,-1,-1,-1,30,32,34,-1,-1,-1,-1,-1,-1,-1,-1,-1],"split_conditions":[-1.0122999E0,-6.1104006E-1,-8.1203836E-1,-2.041798E-2,-1.0377974E-1,1.1300703E-2,-7.1237445E-1,-1.7215472E-1,3.2823887E-1,-3.647229E-1,7.2997427E-1,-4.6500742E-2,1.7767459E-1,-1.9484735E-1,-1.9108588E-2,-6.2256712E-2,6.3679464E-2,2.497941E-2,1.0694956E0,-2.2635372E-1,-1.604473E-1,2.0201035E-1,5.6480847E-2,-5.7566315E-1,1.2915531E0,4.43156E-1,-8.434585E-2,-5.3072635E-2,1.4655298E-1,1.0548169E-1,-1.02740526E-1,